booster[0]
0:[v129<12] yes=1,no=2,missing=2,gain=50.8187,cover=791.25
	1:[v103<8.49336] yes=3,no=4,missing=3,gain=10.6707,cover=165.25
		3:[v86<1.8813] yes=7,no=8,missing=7,gain=3.59629,cover=164.25
			7:[v88<4.59969] yes=13,no=14,missing=13,gain=3.00147,cover=158.75
				13:[v5<15.6725] yes=25,no=26,missing=25,gain=1.09218,cover=157
					25:[v36<16.559] yes=43,no=44,missing=43,gain=1.11849,cover=155.5
						43:[v22<4017.5] yes=65,no=66,missing=65,gain=0.935458,cover=154
							65:leaf=0.0165275,cover=148.75
							66:leaf=0.0088,cover=5.25
						44:leaf=0.004,cover=1.5
					26:leaf=0.004,cover=1.5
				14:leaf=0.00181818,cover=1.75
			8:[v103<5.97696] yes=15,no=16,missing=15,gain=4.30037,cover=5.5
				15:[v2<5.24977] yes=27,no=28,missing=27,gain=2.30476,cover=4.25
					27:leaf=-0,cover=1.5
					28:leaf=0.0146667,cover=2.75
				16:leaf=-0.00666667,cover=1.25
		4:leaf=-0.01,cover=1
	2:[v79<2.5] yes=5,no=6,missing=5,gain=19.3561,cover=626
		5:[v2<11.2282] yes=9,no=10,missing=9,gain=6.30847,cover=74.5
			9:[v53<16.5602] yes=17,no=18,missing=17,gain=1.84632,cover=69
				17:[v71<1.5] yes=29,no=30,missing=29,gain=1.08236,cover=65
					29:[v70<13.7806] yes=45,no=46,missing=45,gain=3.11492,cover=17.75
						45:[v1<2.37242] yes=67,no=68,missing=67,gain=0.900122,cover=16.5
							67:leaf=0.0132308,cover=15.25
							68:leaf=0.00222222,cover=1.25
						46:leaf=-0.00222222,cover=1.25
					30:[v14<10.2215] yes=47,no=48,missing=47,gain=1.22319,cover=47.25
						47:leaf=0.004,cover=1.5
						48:leaf=0.0167914,cover=45.75
				18:[v48<12.284] yes=31,no=32,missing=31,gain=6.45,cover=4
					31:leaf=0.0125,cover=3
					32:leaf=-0.01,cover=1
			10:[v65<16.8694] yes=19,no=20,missing=19,gain=4.95604,cover=5.5
				19:leaf=0.0114286,cover=2.5
				20:[v25<0.203638] yes=33,no=34,missing=33,gain=1.86869,cover=3
					33:leaf=0.00181818,cover=1.75
					34:leaf=-0.0111111,cover=1.25
		6:[v55<2.53082] yes=11,no=12,missing=11,gain=10.2942,cover=551.5
			11:[v79<4.5] yes=21,no=22,missing=21,gain=9.07523,cover=509
				21:[v97<9.25162] yes=35,no=36,missing=35,gain=8.45314,cover=245.5
					35:[v14<9.68119] yes=49,no=50,missing=49,gain=7.51988,cover=226.5
						49:[v22<3024.5] yes=69,no=70,missing=69,gain=0.527472,cover=5.5
							69:leaf=-0,cover=3
							70:leaf=-0.00571429,cover=2.5
						50:[v118<8.89763] yes=71,no=72,missing=71,gain=6.95973,cover=221
							71:leaf=0.00763092,cover=199.5
							72:leaf=0.0137778,cover=21.5
					36:[v29<9.12529] yes=51,no=52,missing=51,gain=11.5061,cover=19
						51:[v22<3684] yes=73,no=74,missing=73,gain=3.88802,cover=7.75
							73:leaf=0.0122581,cover=6.75
							74:leaf=-0.005,cover=1
						52:[v70<15.8301] yes=75,no=76,missing=75,gain=8.54637,cover=11.25
							75:leaf=-0.00883721,cover=9.75
							76:leaf=0.012,cover=1.5
				22:[v130<3.42778] yes=37,no=38,missing=37,gain=5.70583,cover=263.5
					37:[v35<10.9414] yes=53,no=54,missing=53,gain=5.17457,cover=257.25
						53:[v43<2.52802] yes=77,no=78,missing=77,gain=4.3513,cover=254.75
							77:leaf=0.0112589,cover=209.5
							78:leaf=0.00745946,cover=45.25
						54:[v7<1.78613] yes=79,no=80,missing=79,gain=5.31429,cover=2.5
							79:leaf=0.01,cover=1
							80:leaf=-0.012,cover=1.5
					38:[v108<1.82565] yes=55,no=56,missing=55,gain=9.15599,cover=6.25
						55:[v17<2.66358] yes=81,no=82,missing=81,gain=4.60952,cover=4.25
							81:leaf=0.0146667,cover=2.75
							82:leaf=-0.004,cover=1.5
						56:leaf=-0.0133333,cover=2
			12:[v48<16.8283] yes=23,no=24,missing=23,gain=12.8957,cover=42.5
				23:[v55<3.53113] yes=39,no=40,missing=39,gain=7.35933,cover=31.5
					39:[v37<1.74913] yes=57,no=58,missing=57,gain=6.93635,cover=25.75
						57:[v14<11.9154] yes=83,no=84,missing=83,gain=8.79104,cover=21
							83:leaf=-0.0102041,cover=11.25
							84:leaf=0.00232558,cover=9.75
						58:[v53<14.1343] yes=85,no=86,missing=85,gain=5.47826,cover=4.75
							85:leaf=-0.00666667,cover=1.25
							86:leaf=0.0133333,cover=3.5
					40:[v53<14.8967] yes=59,no=60,missing=59,gain=4.02335,cover=5.75
						59:leaf=-0.005,cover=1
						60:[v7<2.40361] yes=87,no=88,missing=87,gain=2.0595,cover=4.75
							87:leaf=0.0157895,cover=3.75
							88:leaf=-0,cover=1
				24:[v105<4.48431] yes=41,no=42,missing=41,gain=2.89103,cover=11
					41:[v14<11.0113] yes=61,no=62,missing=61,gain=1.60583,cover=8.75
						61:leaf=0.00222222,cover=1.25
						62:leaf=0.0164706,cover=7.5
					42:[v16<4.15304] yes=63,no=64,missing=63,gain=2.92308,cover=2.25
						63:leaf=-0.00666667,cover=1.25
						64:leaf=0.01,cover=1
booster[1]
0:[v47<4.5] yes=1,no=2,missing=1,gain=57.6945,cover=790.222
	1:[v31<2.5] yes=3,no=4,missing=3,gain=10.6853,cover=404.731
		3:[v12<6.46162] yes=7,no=8,missing=7,gain=13.0085,cover=251.99
			7:[v10<0.776806] yes=15,no=16,missing=15,gain=4.61703,cover=105.246
				15:[v49<8.8406] yes=27,no=28,missing=27,gain=4.19431,cover=38.4985
					27:[v69<8.24821] yes=49,no=50,missing=49,gain=4.17715,cover=35.4987
						49:[v52<9.5] yes=81,no=82,missing=81,gain=3.98267,cover=19.9992
							81:leaf=0.0112199,cover=13.9994
							82:leaf=0.00133256,cover=5.99976
						50:[v82<3.25228] yes=83,no=84,missing=83,gain=0.735927,cover=15.4995
							83:leaf=0.00538511,cover=1.74994
							84:leaf=0.0171903,cover=13.7495
					28:[v18<0.929747] yes=51,no=52,missing=51,gain=5.04331,cover=2.99987
						51:leaf=-0.0111524,cover=1.24995
						52:leaf=0.00903549,cover=1.74993
				16:[v123<13.4969] yes=29,no=30,missing=29,gain=5.259,cover=66.7472
					29:[v60<2.39814] yes=53,no=54,missing=53,gain=2.1621,cover=65.4972
						53:[v12<6.03856] yes=85,no=86,missing=85,gain=1.49463,cover=63.2473
							85:leaf=0.00393221,cover=1.49995
							86:leaf=0.0174908,cover=61.7473
						54:leaf=0.00456312,cover=2.24991
					30:leaf=-0.00222374,cover=1.24997
			8:[v36<14.8421] yes=17,no=18,missing=17,gain=8.4637,cover=146.745
				17:[v122<8.27133] yes=31,no=32,missing=31,gain=5.53616,cover=105.996
					31:[v101<6.26988] yes=55,no=56,missing=55,gain=3.59943,cover=95.7465
						55:[v101<5.35768] yes=87,no=88,missing=87,gain=8.27895,cover=56.2477
							87:leaf=0.0115183,cover=49.2479
							88:leaf=-7.87036e-05,cover=6.99981
						56:[v29<9.48127] yes=89,no=90,missing=89,gain=4.8017,cover=39.4988
							89:leaf=0.0166997,cover=30.2491
							90:leaf=0.00723412,cover=9.24972
					32:[v41<7.1581] yes=57,no=58,missing=57,gain=7.3506,cover=10.2497
						57:[v82<8.44717] yes=91,no=92,missing=91,gain=7.16169,cover=5.24987
							91:leaf=-0.0125577,cover=2.99992
							92:leaf=0.00762592,cover=2.24995
						58:[v69<7.46167] yes=93,no=94,missing=93,gain=3.78172,cover=4.99982
							93:leaf=-0.00227431,cover=1.24997
							94:leaf=0.0156944,cover=3.74985
				18:[v123<2.73588] yes=33,no=34,missing=33,gain=6.22714,cover=40.7485
					33:[v12<6.6043] yes=59,no=60,missing=59,gain=5.00392,cover=9.99966
						59:[v46<0.880927] yes=95,no=96,missing=95,gain=0.564286,cover=2.99991
							95:leaf=-0.0127938,cover=1.74994
							96:leaf=-0.00225452,cover=1.24997
						60:[v118<8.03484] yes=97,no=98,missing=97,gain=7.98535,cover=6.99975
							97:leaf=0.0108118,cover=4.49983
							98:leaf=-0.00865302,cover=2.49991
					34:[v118<6.45647] yes=61,no=62,missing=61,gain=7.96516,cover=30.7489
						61:[v18<0.923033] yes=99,no=100,missing=99,gain=9.06699,cover=4.49983
							99:leaf=-0.0125142,cover=2.99991
							100:leaf=0.0119161,cover=1.49992
						62:[v69<11.9089] yes=101,no=102,missing=101,gain=5.54567,cover=26.2491
							101:leaf=0.0110643,cover=24.9991
							102:leaf=-0.00666829,cover=1.24999
		4:[v103<8.26554] yes=9,no=10,missing=9,gain=4.71,cover=152.74
			9:[v12<10.6905] yes=19,no=20,missing=19,gain=2.94499,cover=151.49
				19:[v18<2.68252] yes=35,no=36,missing=35,gain=1.74312,cover=149.741
					35:[v122<10.9843] yes=63,no=64,missing=63,gain=1.20379,cover=148.491
						63:[v82<12.735] yes=103,no=104,missing=103,gain=1.07102,cover=145.991
							103:leaf=0.0163586,cover=139.491
							104:leaf=0.00920134,cover=6.4996
						64:[v10<3.26039] yes=105,no=106,missing=105,gain=1.7391,cover=2.4999
							105:leaf=-0.00225127,cover=1.24996
							106:leaf=0.0110401,cover=1.24994
					36:leaf=0.00213019,cover=1.24991
				20:leaf=0.0017281,cover=1.7499
			10:leaf=-0.00219648,cover=1.24996
	2:[v10<1.84902] yes=5,no=6,missing=5,gain=31.5781,cover=385.492
		5:[v12<6.51501] yes=11,no=12,missing=11,gain=44.0205,cover=331.743
			11:[v10<1.32385] yes=21,no=22,missing=21,gain=10.5728,cover=180.746
				21:[v121<5.40705] yes=37,no=38,missing=37,gain=6.2547,cover=158.247
					37:[v41<8.26531] yes=65,no=66,missing=65,gain=5.33449,cover=151.997
						65:[v12<6.19509] yes=107,no=108,missing=107,gain=3.91399,cover=141.747
							107:leaf=0.0123105,cover=50.249
							108:leaf=0.00846066,cover=91.4981
						66:[v29<9.82323] yes=109,no=110,missing=109,gain=8.59586,cover=10.2497
							109:leaf=-0.00729822,cover=4.49989
							110:leaf=0.00958627,cover=5.74984
					38:[v7<1.77609] yes=67,no=68,missing=67,gain=8.71639,cover=6.24981
						67:leaf=0.0113628,cover=2.49988
						68:[v79<5.5] yes=111,no=112,missing=111,gain=1.97558,cover=3.74993
							111:leaf=-0.0138216,cover=2.24998
							112:leaf=3.16937e-05,cover=1.49996
				22:[v82<11.8301] yes=39,no=40,missing=39,gain=0.761276,cover=22.4995
					39:[v122<7.34504] yes=69,no=70,missing=69,gain=0.403088,cover=20.7496
						69:leaf=0.0182753,cover=17.2497
						70:[v60<1.19305] yes=113,no=114,missing=113,gain=2.79876,cover=3.49993
							113:leaf=-0.00227447,cover=1.24997
							114:leaf=0.0138039,cover=2.24996
					40:leaf=0.00539946,cover=1.74997
			12:[v22<1020.5] yes=23,no=24,missing=23,gain=12.5693,cover=150.997
				23:[v122<6.64502] yes=41,no=42,missing=41,gain=10.0597,cover=37.7492
					41:[v27<2.75621] yes=71,no=72,missing=71,gain=7.27332,cover=24.9995
						71:[v22<159] yes=115,no=116,missing=115,gain=5.94987,cover=21.7495
							115:leaf=0.0136176,cover=3.7499
							116:leaf=0.000970695,cover=17.9996
						72:[v22<690.5] yes=117,no=118,missing=117,gain=0.682561,cover=3.24994
							117:leaf=-0.0133692,cover=1.99997
							118:leaf=-0.00223037,cover=1.24997
					42:[v29<7.13642] yes=73,no=74,missing=73,gain=9.63081,cover=12.7497
						73:leaf=0.00902787,cover=1.74995
						74:[v121<2.03074] yes=119,no=120,missing=119,gain=5.31339,cover=10.9998
							119:leaf=-0.00122659,cover=3.24992
							120:leaf=-0.0166056,cover=7.74984
				24:[v92<0.798732] yes=43,no=44,missing=43,gain=9.92485,cover=113.248
					43:[v10<1.13786] yes=75,no=76,missing=75,gain=10.4581,cover=108.248
						75:[v28<6.6688] yes=121,no=122,missing=121,gain=8.64403,cover=34.9993
							121:leaf=-0.0019169,cover=28.7494
							122:leaf=0.010262,cover=6.24984
						76:[v52<6.5] yes=123,no=124,missing=123,gain=6.2877,cover=73.2485
							123:leaf=0.00397907,cover=35.9993
							124:leaf=0.00998726,cover=37.2492
					44:[v22<3589] yes=77,no=78,missing=77,gain=5.70527,cover=4.99988
						77:leaf=-0.01367,cover=3.74991
						78:leaf=0.0066437,cover=1.24997
		6:[v47<5.5] yes=13,no=14,missing=13,gain=1.92675,cover=53.7487
			13:leaf=0.00329622,cover=1.99997
			14:[v12<7.60758] yes=25,no=26,missing=25,gain=2.57694,cover=51.7487
				25:[v22<336.5] yes=45,no=46,missing=45,gain=0.41253,cover=36.9991
					45:leaf=0.00660409,cover=1.99995
					46:leaf=0.0174096,cover=34.9991
				26:[v90<1.11779] yes=47,no=48,missing=47,gain=6.02469,cover=14.7496
					47:[v59<7.59338] yes=79,no=80,missing=79,gain=2.49209,cover=13.4996
						79:[v22<2916.5] yes=125,no=126,missing=125,gain=3.63365,cover=7.49979
							125:leaf=0.0106784,cover=5.49984
							126:leaf=-0.00339924,cover=1.99995
						80:leaf=0.0170612,cover=5.99985
					48:leaf=-0.00669042,cover=1.24997
booster[2]
0:[v79<2.5] yes=1,no=2,missing=1,gain=51.7951,cover=810.388
	1:[v57<5.65524] yes=3,no=4,missing=3,gain=3.41595,cover=193.455
		3:[v14<16.2993] yes=7,no=8,missing=7,gain=2.66574,cover=191.955
			7:[v27<4.71637] yes=13,no=14,missing=13,gain=1.52724,cover=190.206
				13:[v94<5.31326] yes=21,no=22,missing=21,gain=0.562133,cover=188.956
					21:[v52<1.5] yes=33,no=34,missing=33,gain=0.584898,cover=186.206
						33:[v1<2.33886] yes=55,no=56,missing=55,gain=2.84183,cover=13.747
							55:leaf=0.0126711,cover=11.7473
							56:leaf=-0.000100889,cover=1.99972
						34:[v82<14.4775] yes=57,no=58,missing=57,gain=0.682909,cover=172.459
							57:leaf=0.0156641,cover=169.71
							58:leaf=0.00648855,cover=2.74957
					22:[v35<6.99373] yes=35,no=36,missing=35,gain=2.0606,cover=2.74942
						35:leaf=0.0118317,cover=1.49968
						36:leaf=-0.00237637,cover=1.24974
				14:leaf=0.00211254,cover=1.2498
			8:leaf=0.00165888,cover=1.74962
		4:leaf=-9.40044e-05,cover=1.49986
	2:[v66<2.5] yes=5,no=6,missing=5,gain=32.2401,cover=616.933
		5:[v113<3.5] yes=9,no=10,missing=9,gain=33.089,cover=474.948
			9:[v72<2.5] yes=15,no=16,missing=16,gain=8.88073,cover=191.222
				15:[v13<5.59631] yes=23,no=24,missing=23,gain=8.11932,cover=153.728
					23:[v35<10.9296] yes=37,no=38,missing=37,gain=6.27539,cover=142.979
						37:[v56<64.5] yes=59,no=60,missing=59,gain=5.95496,cover=140.729
							59:leaf=0.0108417,cover=137.73
							60:leaf=-0.00263212,cover=2.99967
						38:leaf=-0.00464361,cover=2.24993
					24:[v131<1.09991] yes=39,no=40,missing=39,gain=6.86861,cover=10.749
						39:[v2<6.61218] yes=61,no=62,missing=61,gain=4.67929,cover=4.99969
							61:leaf=-0.0116313,cover=3.7498
							62:leaf=0.00658899,cover=1.24989
						40:[v35<8.1201] yes=63,no=64,missing=63,gain=3.93184,cover=5.74927
							63:leaf=0.0122021,cover=4.2494
							64:leaf=-0.00407503,cover=1.49987
				16:[v94<5.38604] yes=25,no=26,missing=25,gain=1.5783,cover=37.4937
					25:[v13<5.78551] yes=41,no=42,missing=41,gain=1.76073,cover=36.2438
						41:[v127<5.70811] yes=65,no=66,missing=65,gain=1.47617,cover=34.9939
							65:leaf=0.0167752,cover=32.4944
							66:leaf=0.00552118,cover=2.49952
						42:leaf=0.00211188,cover=1.24986
					26:leaf=0.00221802,cover=1.24991
			10:[v56<77.5] yes=17,no=18,missing=17,gain=15.4522,cover=283.726
				17:[v56<66] yes=27,no=28,missing=27,gain=12.5879,cover=247.229
					27:[v14<12.4935] yes=43,no=44,missing=43,gain=11.8346,cover=203.233
						43:[v66<1.5] yes=67,no=68,missing=67,gain=10.2564,cover=161.738
							67:leaf=0.00561491,cover=111.992
							68:leaf=0.000162295,cover=49.746
						44:[v82<8.36836] yes=69,no=70,missing=69,gain=4.53955,cover=41.4958
							69:leaf=0.00770742,cover=31.9968
							70:leaf=0.0160214,cover=9.499
					28:[v79<8.5] yes=45,no=46,missing=45,gain=4.29269,cover=43.9953
						45:[v127<5.9108] yes=71,no=72,missing=71,gain=4.16316,cover=25.7475
							71:leaf=0.0147269,cover=24.4976
							72:leaf=-0.00232353,cover=1.24989
						46:[v78<12.1564] yes=73,no=74,missing=73,gain=3.25732,cover=18.2478
							73:leaf=0.0105094,cover=9.74885
							74:leaf=0.001943,cover=8.49896
				18:[v113<18] yes=29,no=30,missing=29,gain=8.23767,cover=36.4977
					29:[v78<13.1047] yes=47,no=48,missing=47,gain=10.6981,cover=22.2486
						47:[v125<29] yes=75,no=76,missing=75,gain=4.14987,cover=13.7492
							75:leaf=-0.0012647,cover=3.24986
							76:leaf=0.0111761,cover=10.4993
						48:[v105<0.0945891] yes=77,no=78,missing=77,gain=6.51736,cover=8.4994
							77:leaf=-0.0150493,cover=2.99987
							78:leaf=0.00148989,cover=5.49953
					30:[v82<8.33625] yes=49,no=50,missing=49,gain=4.08192,cover=14.2491
						49:[v84<2.3933] yes=79,no=80,missing=79,gain=4.9864,cover=11.9992
							79:leaf=-0.0107379,cover=10.7493
							80:leaf=0.00658667,cover=1.24993
						50:leaf=0.00453024,cover=2.24985
		6:[v28<14.3126] yes=11,no=12,missing=11,gain=7.18287,cover=141.985
			11:[v17<8.37155] yes=19,no=20,missing=19,gain=2.75448,cover=140.735
				19:[v14<10.4914] yes=31,no=32,missing=31,gain=1.98554,cover=139.235
					31:[v27<3.08924] yes=51,no=52,missing=51,gain=3.60533,cover=29.2471
						51:[v52<10.5] yes=81,no=82,missing=81,gain=1.83396,cover=26.2474
							81:leaf=0.0125083,cover=22.2478
							82:leaf=0.00385237,cover=3.9996
						52:[v44<10.1492] yes=83,no=84,missing=83,gain=3.16921,cover=2.99971
							83:leaf=-0.00806479,cover=1.49993
							84:leaf=0.00785885,cover=1.49978
					32:[v84<3.03596] yes=53,no=54,missing=53,gain=2.0225,cover=109.988
						53:[v94<4.73008] yes=85,no=86,missing=85,gain=1.64523,cover=107.238
							85:leaf=0.014722,cover=103.238
							86:leaf=0.00589854,cover=3.99971
						54:[v28<5.6564] yes=87,no=88,missing=87,gain=2.54874,cover=2.74974
							87:leaf=-0.00402634,cover=1.49991
							88:leaf=0.0109878,cover=1.24983
				20:leaf=-9.56788e-05,cover=1.49983
			12:leaf=-0.00671026,cover=1.24994
booster[3]
0:[v50<0.857604] yes=1,no=2,missing=1,gain=116.391,cover=799.77
	1:[v47<4.5] yes=3,no=4,missing=3,gain=35.0266,cover=283.686
		3:[v15<2.15247] yes=7,no=8,missing=7,gain=8.45506,cover=133.456
			7:[v127<3.66642] yes=15,no=16,missing=15,gain=4.93031,cover=100.215
				15:[v88<3.22953] yes=31,no=32,missing=31,gain=12.4987,cover=81.4714
					31:[v27<3.76627] yes=57,no=58,missing=57,gain=5.25581,cover=79.222
						57:[v55<2.19852] yes=97,no=98,missing=97,gain=4.10298,cover=77.9721
							97:leaf=0.0104563,cover=75.2226
							98:leaf=-0.00148361,cover=2.74954
						58:leaf=-0.00678681,cover=1.24984
					32:leaf=-0.010958,cover=2.24941
				16:[v26<2.78073] yes=33,no=34,missing=33,gain=1.01433,cover=18.7434
					33:[v15<1.18584] yes=59,no=60,missing=59,gain=1.50609,cover=17.2439
						59:[v51<5.98352] yes=99,no=100,missing=99,gain=1.77212,cover=2.49926
							99:leaf=0.0109368,cover=1.24968
							100:leaf=-0.00241601,cover=1.24958
						60:[v55<0.753712] yes=101,no=102,missing=101,gain=0.652317,cover=14.7446
							101:leaf=0.0064396,cover=1.99933
							102:leaf=0.0182053,cover=12.7453
					34:leaf=0.00378804,cover=1.49951
			8:[v118<9.01828] yes=17,no=18,missing=17,gain=10.6052,cover=33.2408
				17:[v54<2.19882] yes=35,no=36,missing=35,gain=6.59869,cover=20.4938
					35:[v98<9.79122] yes=61,no=62,missing=61,gain=4.44234,cover=17.2443
						61:[v56<10] yes=103,no=104,missing=103,gain=2.95856,cover=14.2449
							103:leaf=-0.000131471,cover=1.49973
							104:leaf=0.0145734,cover=12.7452
						62:[v78<14.2199] yes=105,no=106,missing=105,gain=4.99399,cover=2.99939
							105:leaf=0.00892351,cover=1.74957
							106:leaf=-0.0111667,cover=1.24981
					36:[v118<8.22844] yes=63,no=64,missing=63,gain=2.11098,cover=3.2495
						63:leaf=0.00388377,cover=1.49964
						64:leaf=-0.00912902,cover=1.74987
				18:[v79<9] yes=37,no=38,missing=37,gain=6.12108,cover=12.747
					37:[v96<5.13156] yes=65,no=66,missing=65,gain=6.53244,cover=11.2477
						65:leaf=0.00891249,cover=1.7495
						66:[v11<15.0581] yes=107,no=108,missing=107,gain=4.73375,cover=9.49816
							107:leaf=-0.0140394,cover=5.49899
							108:leaf=-0.000168923,cover=3.99917
					38:leaf=0.011755,cover=1.49934
		4:[v66<2.5] yes=9,no=10,missing=9,gain=21.7631,cover=150.231
			9:[v50<0.420366] yes=19,no=20,missing=19,gain=17.7209,cover=110.989
				19:[v66<1.5] yes=39,no=40,missing=39,gain=15.7231,cover=43.2459
					39:[v37<0.532977] yes=67,no=68,missing=67,gain=6.83292,cover=34.7464
						67:[v35<6.99768] yes=109,no=110,missing=109,gain=9.24694,cover=23.7477
							109:leaf=-0.00147448,cover=18.248
							110:leaf=-0.0154629,cover=5.49966
						68:[v90<0.693991] yes=111,no=112,missing=111,gain=5.84543,cover=10.9987
							111:leaf=-0.0111317,cover=1.24993
							112:leaf=0.00681848,cover=9.74877
					40:leaf=-0.0168627,cover=8.4995
				20:[v90<0.994761] yes=41,no=42,missing=41,gain=11.9123,cover=67.7427
					41:[v49<8.60117] yes=69,no=70,missing=69,gain=7.75611,cover=46.9953
						69:[v56<43.5] yes=113,no=114,missing=113,gain=5.57701,cover=42.9955
							113:leaf=0.00514649,cover=18.7481
							114:leaf=-0.00195665,cover=24.2474
						70:[v89<1.83911] yes=115,no=116,missing=115,gain=1.00297,cover=3.9998
							115:leaf=-0.0146482,cover=2.74992
							116:leaf=-0.00215634,cover=1.24988
					42:[v55<3.11428] yes=71,no=72,missing=71,gain=7.17017,cover=20.7474
						71:[v49<8.65787] yes=117,no=118,missing=117,gain=3.86412,cover=18.7475
							117:leaf=0.013487,cover=13.2481
							118:leaf=0.0029514,cover=5.49946
						72:leaf=-0.00672454,cover=1.99981
			10:[v43<2.12118] yes=21,no=22,missing=21,gain=8.38844,cover=39.2424
				21:[v50<0.107842] yes=43,no=44,missing=43,gain=4.98753,cover=32.9935
					43:[v79<8.5] yes=73,no=74,missing=73,gain=3.80832,cover=3.2495
						73:leaf=0.00785086,cover=1.49976
						74:leaf=-0.00923675,cover=1.74974
					44:[v47<8.5] yes=75,no=76,missing=75,gain=3.7863,cover=29.744
						75:[v56<9] yes=119,no=120,missing=119,gain=1.84744,cover=27.9943
							119:leaf=0.0026542,cover=2.49941
							120:leaf=0.0129468,cover=25.4949
						76:leaf=-0.00198545,cover=1.74967
				22:[v120<1.14327] yes=45,no=46,missing=45,gain=5.08457,cover=6.24892
					45:[v37<0.570494] yes=77,no=78,missing=77,gain=1.63643,cover=3.24929
						77:leaf=0.00979394,cover=1.99949
						78:leaf=-0.00235198,cover=1.2498
					46:[v14<11.5054] yes=79,no=80,missing=79,gain=0.566698,cover=2.99963
						79:leaf=-0.00227048,cover=1.24984
						80:leaf=-0.0128478,cover=1.74979
	2:[v50<1.85826] yes=5,no=6,missing=5,gain=34.5057,cover=516.083
		5:[v66<2.5] yes=11,no=12,missing=11,gain=12.4205,cover=293.169
			11:[v47<3.5] yes=23,no=24,missing=23,gain=18.8391,cover=231.689
				23:[v49<9.01428] yes=47,no=48,missing=47,gain=5.39304,cover=118.205
					47:[v98<12.6653] yes=81,no=82,missing=81,gain=4.57898,cover=107.708
						81:[v51<12.2478] yes=121,no=122,missing=121,gain=2.59159,cover=105.958
							121:leaf=0.0136517,cover=102.709
							122:leaf=0.00331403,cover=3.24915
						82:leaf=-0.00193751,cover=1.74974
					48:[v50<1.12024] yes=83,no=84,missing=83,gain=5.69974,cover=10.4969
						83:[v78<15.0026] yes=123,no=124,missing=123,gain=4.34777,cover=3.49916
							123:leaf=-0.0128589,cover=1.74967
							124:leaf=0.00528,cover=1.74949
						84:[v50<1.65579] yes=125,no=126,missing=125,gain=4.81757,cover=6.9977
							125:leaf=0.0135503,cover=5.49806
							126:leaf=-0.00415043,cover=1.49964
				24:[v57<3.5153] yes=49,no=50,missing=49,gain=5.83735,cover=113.484
					49:[v24<2.5] yes=85,no=86,missing=85,gain=3.43305,cover=61.9912
						85:leaf=-0.00412341,cover=1.4998
						86:[v14<9.87771] yes=127,no=128,missing=127,gain=3.51004,cover=60.4914
							127:leaf=-0.00148917,cover=2.74965
							128:leaf=0.00957875,cover=57.7417
					50:[v51<6.07082] yes=87,no=88,missing=87,gain=11.1203,cover=51.4928
						87:[v95<0.86307] yes=129,no=130,missing=129,gain=5.08544,cover=17.7471
							129:leaf=0.0120074,cover=15.7473
							130:leaf=-0.00343727,cover=1.99978
						88:[v90<1.05472] yes=131,no=132,missing=131,gain=7.97536,cover=33.7457
							131:leaf=-0.00194792,cover=26.9966
							132:leaf=0.00951749,cover=6.7491
			12:[v50<1.83772] yes=25,no=26,missing=25,gain=4.59891,cover=61.4806
				25:[v88<4.20382] yes=51,no=52,missing=51,gain=4.75448,cover=60.231
					51:[v58<18.8213] yes=89,no=90,missing=89,gain=1.7186,cover=58.9812
						89:[v40<4.60133] yes=133,no=134,missing=133,gain=1.22358,cover=57.7315
							133:leaf=0.0107422,cover=11.2471
							134:leaf=0.0169198,cover=46.4844
						90:leaf=0.00210871,cover=1.24974
					52:leaf=-0.00235878,cover=1.24976
				26:leaf=-0.00240916,cover=1.24961
		6:[v47<7.5] yes=13,no=14,missing=13,gain=1.40988,cover=222.914
			13:[v90<1.41004] yes=27,no=28,missing=27,gain=0.927339,cover=150.681
				27:leaf=0.01706,cover=148.932
				28:leaf=0.005221,cover=1.74937
			14:[v35<9.21866] yes=29,no=30,missing=29,gain=3.99496,cover=72.2322
				29:[v50<2.28303] yes=53,no=54,missing=53,gain=3.37125,cover=65.4833
					53:[v120<1.78221] yes=91,no=92,missing=91,gain=3.50279,cover=22.2453
						91:[v26<2.37287] yes=135,no=136,missing=135,gain=1.55197,cover=20.4956
							135:leaf=0.0126412,cover=18.7459
							136:leaf=0.00170035,cover=1.74976
						92:leaf=-0.00191153,cover=1.74969
					54:[v83<3.70378] yes=93,no=94,missing=93,gain=2.07693,cover=43.238
						93:leaf=0.017128,cover=41.9882
						94:leaf=0.00211128,cover=1.24979
				30:[v120<0.78414] yes=55,no=56,missing=55,gain=2.97485,cover=6.74888
					55:leaf=-0.00346263,cover=1.99964
					56:[v120<1.89182] yes=95,no=96,missing=95,gain=2.82287,cover=4.74924
						95:leaf=0.0131424,cover=3.49933
						96:leaf=-0.0022932,cover=1.24991
booster[4]
0:[v50<1.0234] yes=1,no=2,missing=1,gain=119.526,cover=806.083
	1:[v50<0.389553] yes=3,no=4,missing=3,gain=29.2324,cover=344.626
		3:[v42<14.5932] yes=7,no=8,missing=7,gain=9.31605,cover=94.9711
			7:[v16<6.29515] yes=15,no=16,missing=15,gain=6.81416,cover=92.2219
				15:[v80<2.18364] yes=27,no=28,missing=27,gain=7.83203,cover=83.4761
					27:[v71<1.5] yes=45,no=46,missing=45,gain=8.98458,cover=64.7301
						45:[v50<0.158462] yes=73,no=74,missing=73,gain=5.26002,cover=13.9947
							73:leaf=-0.00670115,cover=1.2499
							74:leaf=0.0109518,cover=12.7447
						46:[v34<8.56403] yes=75,no=76,missing=75,gain=8.93479,cover=50.7354
							75:leaf=-0.00146165,cover=44.2382
							76:leaf=0.0103253,cover=6.4972
					28:[v83<4.20915] yes=47,no=48,missing=47,gain=11.909,cover=18.746
						47:[v46<0.112659] yes=77,no=78,missing=77,gain=6.69046,cover=15.4973
							77:leaf=0.00336911,cover=3.24931
							78:leaf=-0.0117833,cover=12.248
						48:[v15<2.64835] yes=79,no=80,missing=79,gain=0.698146,cover=3.24865
							79:leaf=0.00207807,cover=1.24929
							80:leaf=0.013121,cover=1.99936
				16:[v45<10.477] yes=29,no=30,missing=29,gain=8.11002,cover=8.74581
					29:[v80<2.08771] yes=49,no=50,missing=49,gain=2.63942,cover=7.24585
						49:leaf=0.00163786,cover=1.74935
						50:leaf=0.0165229,cover=5.4965
					30:leaf=-0.00799459,cover=1.49996
			8:leaf=-0.0145731,cover=2.74926
		4:[v66<2.5] yes=9,no=10,missing=9,gain=8.93976,cover=249.655
			9:[v21<7.13576] yes=17,no=18,missing=17,gain=10.0762,cover=200.18
				17:[v21<5.24684] yes=31,no=32,missing=31,gain=8.25478,cover=113.214
					31:[v27<3.23564] yes=51,no=52,missing=51,gain=1.70116,cover=6.74609
						51:leaf=0.016534,cover=5.49684
						52:leaf=0.00196319,cover=1.24925
					32:[v39<1.80445] yes=53,no=54,missing=53,gain=7.65344,cover=106.468
						53:[v88<1.93053] yes=81,no=82,missing=81,gain=7.90258,cover=94.7214
							81:leaf=0.00304461,cover=75.7285
							82:leaf=0.0101951,cover=18.9929
						54:[v90<0.851354] yes=83,no=84,missing=83,gain=8.01291,cover=11.7468
							83:leaf=0.00803158,cover=3.24885
							84:leaf=-0.00862353,cover=8.49798
				18:[v67<10.3474] yes=33,no=34,missing=33,gain=9.01814,cover=86.9654
					33:[v90<1.40749] yes=55,no=56,missing=55,gain=5.42361,cover=77.4684
						55:[v34<3.80946] yes=85,no=86,missing=85,gain=4.73811,cover=76.2184
							85:leaf=0.00460562,cover=13.4971
							86:leaf=0.0116241,cover=62.7213
						56:leaf=-0.00669351,cover=1.24993
					34:[v14<12.2336] yes=57,no=58,missing=57,gain=5.68377,cover=9.49709
						57:[v25<3.11983] yes=87,no=88,missing=87,gain=1.77281,cover=3.4995
							87:leaf=-0.0133879,cover=1.99981
							88:leaf=-4.31862e-05,cover=1.49969
						58:[v21<8.12436] yes=89,no=90,missing=89,gain=6.21343,cover=5.99759
							89:leaf=0.0117443,cover=3.99836
							90:leaf=-0.00684007,cover=1.99923
			10:[v118<10.1458] yes=19,no=20,missing=19,gain=7.45833,cover=49.4752
				19:[v12<6.05509] yes=35,no=36,missing=35,gain=3.41833,cover=47.2257
					35:leaf=-0.00248252,cover=1.24932
					36:[v14<12.6293] yes=59,no=60,missing=59,gain=3.72386,cover=45.9764
						59:[v50<0.447509] yes=91,no=92,missing=91,gain=1.49676,cover=39.73
							91:leaf=0.00571288,cover=3.9985
							92:leaf=0.0144095,cover=35.7315
						60:[v14<12.8187] yes=93,no=94,missing=93,gain=3.65061,cover=6.24637
							93:leaf=-0.00572627,cover=1.74914
							94:leaf=0.00871878,cover=4.49723
				20:leaf=-0.00478977,cover=2.24947
	2:[v50<1.88614] yes=5,no=6,missing=5,gain=30.4815,cover=461.457
		5:[v12<6.07686] yes=11,no=12,missing=11,gain=10.9113,cover=236.381
			11:[v1<1.46637] yes=21,no=22,missing=21,gain=4.59061,cover=9.99546
				21:[v34<6.89562] yes=37,no=38,missing=37,gain=4.04075,cover=7.99606
					37:[v22<3558] yes=61,no=62,missing=61,gain=2.80925,cover=4.74768
						61:leaf=0.0129884,cover=3.49803
						62:leaf=-0.00236746,cover=1.24965
					38:[v112<11.5] yes=63,no=64,missing=63,gain=2.1181,cover=3.24838
						63:leaf=-0.00935127,cover=1.7492
						64:leaf=0.0037257,cover=1.49918
				22:leaf=-0.0102105,cover=1.9994
			12:[v23<0.000862001] yes=23,no=24,missing=23,gain=7.06915,cover=226.385
				23:[v66<2.5] yes=39,no=40,missing=39,gain=4.20508,cover=207.642
					39:[v98<12.6523] yes=65,no=66,missing=65,gain=6.8625,cover=163.421
						65:[v34<9.28318] yes=95,no=96,missing=95,gain=2.97956,cover=161.171
							95:leaf=0.0112776,cover=159.922
							96:leaf=-0.00250984,cover=1.24912
						66:leaf=-0.00473549,cover=2.24973
					40:[v14<10.1445] yes=67,no=68,missing=67,gain=3.88565,cover=44.2211
						67:[v34<9.42966] yes=97,no=98,missing=97,gain=1.19491,cover=3.24828
							97:leaf=-0.00212487,cover=1.74894
							98:leaf=0.00775199,cover=1.49934
						68:[v22<293] yes=99,no=100,missing=99,gain=2.6197,cover=40.9728
							99:leaf=0.00466284,cover=2.99807
							100:leaf=0.0164414,cover=37.9747
				24:[v6<2.41421] yes=41,no=42,missing=41,gain=7.80263,cover=18.7437
					41:[v90<1.06594] yes=69,no=70,missing=69,gain=4.88348,cover=14.7452
						69:[v80<3.20448] yes=101,no=102,missing=101,gain=6.15843,cover=7.49809
							101:leaf=0.00808045,cover=4.99838
							102:leaf=-0.00866714,cover=2.49971
						70:[v86<1.56469] yes=103,no=104,missing=103,gain=4.53229,cover=7.2471
							103:leaf=0.0167938,cover=5.9972
							104:leaf=-0.00227236,cover=1.2499
					42:[v42<12.8224] yes=71,no=72,missing=71,gain=3.15666,cover=3.99846
						71:leaf=0.00379322,cover=1.49943
						72:leaf=-0.0116656,cover=2.49904
		6:[v68<19.6605] yes=13,no=14,missing=13,gain=1.9054,cover=225.076
			13:[v14<9.90849] yes=25,no=26,missing=25,gain=0.757952,cover=223.827
				25:[v71<1.5] yes=43,no=44,missing=43,gain=2.51698,cover=4.24755
					43:leaf=-0.00247755,cover=1.24933
					44:leaf=0.0121535,cover=2.99821
				26:leaf=0.0163015,cover=219.579
			14:leaf=0.00198405,cover=1.24925
booster[5]
0:[v50<0.857605] yes=1,no=2,missing=1,gain=117.705,cover=795.113
	1:[v110<1.5] yes=3,no=4,missing=3,gain=34.9154,cover=273.371
		3:[v114<10.4863] yes=7,no=8,missing=7,gain=26.1842,cover=149.207
			7:[v21<6.1106] yes=15,no=16,missing=15,gain=6.33096,cover=26.2457
				15:[v90<0.975682] yes=29,no=30,missing=29,gain=3.77743,cover=3.49913
					29:leaf=0.0105696,cover=2.24944
					30:leaf=-0.0066249,cover=1.24969
				16:[v50<0.443108] yes=31,no=32,missing=31,gain=4.6851,cover=22.7465
					31:[v50<0.226689] yes=51,no=52,missing=51,gain=1.99224,cover=9.49843
						51:leaf=-0.00326821,cover=1.99951
						52:leaf=-0.0164342,cover=7.49892
					32:[v43<1.80607] yes=53,no=54,missing=53,gain=3.67303,cover=13.2481
						53:[v50<0.567823] yes=83,no=84,missing=83,gain=4.79135,cover=7.99876
							83:leaf=0.0118107,cover=1.49955
							84:leaf=-0.00417671,cover=6.49921
						54:[v120<0.63694] yes=85,no=86,missing=85,gain=3.12006,cover=5.24935
							85:leaf=0.00214486,cover=1.24975
							86:leaf=-0.014037,cover=3.9996
			8:[v50<0.40716] yes=17,no=18,missing=17,gain=11.0981,cover=122.961
				17:[v114<16.9316] yes=33,no=34,missing=33,gain=15.5658,cover=47.4887
					33:[v53<15.9057] yes=55,no=56,missing=55,gain=6.48254,cover=40.2425
						55:[v72<1.5] yes=87,no=88,missing=88,gain=5.67602,cover=33.4932
							87:leaf=0.00145274,cover=26.2445
							88:leaf=-0.00802015,cover=7.24872
						56:[v100<18.5209] yes=89,no=90,missing=89,gain=5.50111,cover=6.74926
							89:leaf=-0.0151739,cover=5.24943
							90:leaf=0.00399727,cover=1.49983
					34:[v56<66.5] yes=57,no=58,missing=57,gain=0.446202,cover=7.24614
						57:[v14<11.8117] yes=91,no=92,missing=91,gain=0.82771,cover=5.74683
							91:leaf=0.0158259,cover=4.24762
							92:leaf=0.00376374,cover=1.49921
						58:leaf=0.00375151,cover=1.49931
				18:[v90<1.00102] yes=35,no=36,missing=35,gain=8.71268,cover=75.4728
					35:[v86<1.49777] yes=59,no=60,missing=59,gain=7.36043,cover=57.2315
						59:[v113<7.5] yes=93,no=94,missing=93,gain=6.38074,cover=52.2324
							93:leaf=0.010538,cover=14.2461
							94:leaf=0.00276031,cover=37.9863
						60:[v21<6.39235] yes=95,no=96,missing=95,gain=5.13333,cover=4.9991
							95:leaf=0.00524923,cover=1.7495
							96:leaf=-0.0129436,cover=3.2496
					36:[v113<29.5] yes=61,no=62,missing=61,gain=3.41175,cover=18.2413
						61:[v85<1.48526] yes=97,no=98,missing=97,gain=1.8054,cover=15.4922
							97:leaf=0.00566589,cover=3.99796
							98:leaf=0.0156188,cover=11.4942
						62:[v35<7.63194] yes=99,no=100,missing=99,gain=2.52717,cover=2.74909
							99:leaf=-0.00684226,cover=1.24957
							100:leaf=0.00779468,cover=1.49952
		4:[v104<5.0652] yes=9,no=10,missing=9,gain=15.8157,cover=124.164
			9:[v73<2.29454] yes=19,no=20,missing=19,gain=5.41175,cover=121.414
				19:[v127<3.76477] yes=37,no=38,missing=37,gain=4.59496,cover=81.688
					37:[v80<2.22786] yes=63,no=64,missing=63,gain=8.06283,cover=68.6992
						63:[v43<3.22562] yes=101,no=102,missing=101,gain=4.01102,cover=62.4533
							101:leaf=0.011149,cover=60.2039
							102:leaf=-0.0017459,cover=2.24942
						64:[v49<8.6844] yes=103,no=104,missing=103,gain=8.80428,cover=6.24593
							103:leaf=-0.00982435,cover=3.74769
							104:leaf=0.0110953,cover=2.49824
					38:[v41<7.30093] yes=65,no=66,missing=65,gain=0.176181,cover=12.9887
						65:leaf=0.0177802,cover=10.7404
						66:leaf=0.00736828,cover=2.24835
				20:[v120<0.924481] yes=39,no=40,missing=39,gain=7.68487,cover=39.7261
					39:[v87<7.59672] yes=67,no=68,missing=67,gain=5.49904,cover=13.7434
						67:leaf=0.0110714,cover=2.49825
						68:[v35<7.98612] yes=105,no=106,missing=105,gain=4.36437,cover=11.2451
							105:leaf=-0.00904555,cover=5.24782
							106:leaf=0.00257325,cover=5.99733
					40:[v24<2.5] yes=69,no=70,missing=69,gain=5.59369,cover=25.9827
						69:leaf=-0.00562584,cover=1.7494
						70:[v131<2.53303] yes=107,no=108,missing=107,gain=5.55969,cover=24.2333
							107:leaf=0.0124908,cover=20.2355
							108:leaf=-0.000292243,cover=3.99783
			10:leaf=-0.0119587,cover=2.74957
	2:[v50<1.88908] yes=5,no=6,missing=5,gain=30.6317,cover=521.743
		5:[v9<9.56161] yes=11,no=12,missing=11,gain=9.00147,cover=301.522
			11:[v77<9.94958] yes=21,no=22,missing=21,gain=6.4575,cover=229.817
				21:[v113<22.5] yes=41,no=42,missing=41,gain=4.55971,cover=228.567
					41:[v115<16.7532] yes=71,no=72,missing=71,gain=3.5376,cover=197.833
						71:[v23<19.4989] yes=109,no=110,missing=109,gain=1.75727,cover=196.584
							109:leaf=0.012822,cover=194.835
							110:leaf=0.00167304,cover=1.74932
						72:leaf=-0.00244675,cover=1.24909
					42:[v30<4.5] yes=73,no=74,missing=73,gain=6.19277,cover=30.7339
						73:[v56<9.5] yes=111,no=112,missing=111,gain=3.41117,cover=25.7355
							111:leaf=0.000791604,cover=3.74869
							112:leaf=0.0113024,cover=21.9869
						74:[v122<5.63907] yes=113,no=114,missing=113,gain=1.60255,cover=4.99836
							113:leaf=0.00195089,cover=3.49872
							114:leaf=-0.00813442,cover=1.49964
				22:leaf=-0.0067598,cover=1.24985
			12:[v110<1.5] yes=23,no=24,missing=23,gain=7.43565,cover=71.705
				23:[v9<10.8497] yes=43,no=44,missing=43,gain=8.82569,cover=34.9869
					43:[v14<11.8824] yes=75,no=76,missing=75,gain=7.46685,cover=19.9929
						75:[v126<1.51231] yes=115,no=116,missing=115,gain=5.90156,cover=13.9956
							115:leaf=0.00370891,cover=5.24782
							116:leaf=-0.00891854,cover=8.74776
						76:[v85<3.86074] yes=117,no=118,missing=117,gain=2.97327,cover=5.99736
							117:leaf=0.012062,cover=4.24796
							118:leaf=-0.00200484,cover=1.7494
					44:[v6<2.4211] yes=77,no=78,missing=77,gain=8.11928,cover=14.994
						77:[v90<0.812023] yes=119,no=120,missing=119,gain=1.5331,cover=10.2451
							119:leaf=0.00200748,cover=1.24945
							120:leaf=0.015638,cover=8.99564
						78:[v56<50] yes=121,no=122,missing=121,gain=4.57537,cover=4.74891
							121:leaf=0.00645416,cover=2.74922
							122:leaf=-0.0101337,cover=1.99969
				24:[v17<1.2939] yes=45,no=46,missing=45,gain=10.0854,cover=36.7181
					45:leaf=-0.0112126,cover=1.2497
					46:[v115<12.265] yes=79,no=80,missing=79,gain=5.9784,cover=35.4684
						79:[v54<0.0508801] yes=123,no=124,missing=123,gain=1.90009,cover=28.723
							123:leaf=0.00621058,cover=4.99554
							124:leaf=0.0149943,cover=23.7274
						80:[v131<2.08471] yes=125,no=126,missing=125,gain=6.1256,cover=6.74538
							125:leaf=-0.00398533,cover=4.4975
							126:leaf=0.0134342,cover=2.24788
		6:[v9<9.78835] yes=13,no=14,missing=13,gain=1.60437,cover=220.221
			13:[v56<1.5] yes=25,no=26,missing=25,gain=1.77031,cover=180.517
				25:[v58<3.53832] yes=47,no=48,missing=47,gain=4.17311,cover=4.99651
					47:leaf=0.0129052,cover=3.49718
					48:leaf=-0.00421874,cover=1.49933
				26:leaf=0.0167113,cover=175.521
			14:[v81<10.0448] yes=27,no=28,missing=27,gain=3.87742,cover=39.7038
				27:[v126<1.08436] yes=49,no=50,missing=49,gain=3.42192,cover=37.7057
					49:leaf=0.00116293,cover=2.24802
					50:[v126<2.19703] yes=81,no=82,missing=81,gain=2.70273,cover=35.4577
						81:[v9<9.8501] yes=127,no=128,missing=127,gain=1.71245,cover=33.7096
							127:leaf=0.00185384,cover=1.24853
							128:leaf=0.0154802,cover=32.461
						82:leaf=0.00141602,cover=1.74814
				28:leaf=-0.000400812,cover=1.9981
booster[6]
0:[v50<1.67926] yes=1,no=2,missing=1,gain=106.573,cover=802.818
	1:[v110<1.5] yes=3,no=4,missing=3,gain=57.2616,cover=529.056
		3:[v66<2.5] yes=7,no=8,missing=7,gain=42.341,cover=274.853
			7:[v50<0.440907] yes=15,no=16,missing=15,gain=36.0479,cover=206.168
				15:[v66<1.5] yes=29,no=30,missing=29,gain=17.3994,cover=48.4917
					29:[v28<5.64892] yes=53,no=54,missing=53,gain=11.0184,cover=38.9943
						53:[v78<12.8462] yes=83,no=84,missing=83,gain=5.91433,cover=29.9961
							83:leaf=-0.00219322,cover=21.2475
							84:leaf=-0.0117441,cover=8.74862
						54:[v16<4.7381] yes=85,no=86,missing=85,gain=5.13075,cover=8.99818
							85:leaf=0.0151702,cover=3.24945
							86:leaf=0.000573884,cover=5.74873
					30:leaf=-0.016963,cover=9.49744
				16:[v90<1.03452] yes=31,no=32,missing=31,gain=10.8345,cover=157.676
					31:[v35<9.32311] yes=55,no=56,missing=55,gain=12.4113,cover=123.947
						55:[v2<9.24286] yes=87,no=88,missing=87,gain=7.6525,cover=116.199
							87:leaf=0.00449146,cover=105.953
							88:leaf=-0.0042566,cover=10.246
						56:[v49<9.50695] yes=89,no=90,missing=89,gain=5.83475,cover=7.74807
							89:leaf=-0.0129284,cover=5.99883
							90:leaf=0.00523721,cover=1.74925
					32:[v78<10.2775] yes=57,no=58,missing=57,gain=7.05079,cover=33.7293
						57:leaf=-0.00815885,cover=1.49951
						58:[v13<4.56541] yes=91,no=92,missing=91,gain=6.58049,cover=32.2298
							91:leaf=0.0126041,cover=24.9827
							92:leaf=0.00158563,cover=7.24703
			8:[v50<0.63385] yes=17,no=18,missing=17,gain=11.2533,cover=68.6853
				17:[v14<11.2702] yes=33,no=34,missing=33,gain=5.08166,cover=26.9839
					33:[v14<9.9101] yes=59,no=60,missing=59,gain=8.55293,cover=12.2433
						59:leaf=0.0125827,cover=3.24803
						60:[v125<51.5] yes=93,no=94,missing=93,gain=3.04045,cover=8.99529
							93:leaf=-0.00936979,cover=4.49803
							94:leaf=0.00144215,cover=4.49726
					34:[v39<0.509241] yes=61,no=62,missing=61,gain=4.13731,cover=14.7406
						61:[v50<0.0968381] yes=95,no=96,missing=95,gain=3.16327,cover=13.241
							95:leaf=-0.00240062,cover=1.24965
							96:leaf=0.0126071,cover=11.9914
						62:leaf=-0.00416417,cover=1.49954
				18:[v39<0.530706] yes=35,no=36,missing=35,gain=4.601,cover=41.7014
					35:leaf=0.0154031,cover=36.9554
					36:[v39<1.10762] yes=63,no=64,missing=63,gain=5.55365,cover=4.74595
						63:leaf=-0.00691977,cover=1.99877
						64:leaf=0.0115539,cover=2.74718
		4:[v19<0.263217] yes=9,no=10,missing=9,gain=5.97178,cover=254.203
			9:[v72<1.5] yes=19,no=20,missing=19,gain=5.41232,cover=223.476
				19:[v103<6.96367] yes=37,no=38,missing=37,gain=7.37073,cover=133.846
					37:[v50<0.388819] yes=65,no=66,missing=65,gain=4.84937,cover=132.347
						65:[v57<3.67747] yes=97,no=98,missing=97,gain=7.7232,cover=19.2344
							97:leaf=-6.95233e-05,cover=11.7411
							98:leaf=0.0124431,cover=7.4933
						66:[v67<11.4321] yes=99,no=100,missing=99,gain=4.14448,cover=113.112
							99:leaf=0.0113036,cover=110.863
							100:leaf=-0.00171491,cover=2.24897
					38:leaf=-0.00822997,cover=1.49883
				20:[v50<0.149659] yes=39,no=40,missing=39,gain=3.99131,cover=89.63
					39:leaf=-0.000332468,cover=1.99852
					40:[v88<4.56236] yes=67,no=68,missing=67,gain=4.04449,cover=87.6315
						67:[v35<8.76398] yes=101,no=102,missing=101,gain=2.235,cover=86.382
							101:leaf=0.0150134,cover=68.9028
							102:leaf=0.00966067,cover=17.4792
						68:leaf=-0.00238561,cover=1.24942
			10:[v103<4.79139] yes=21,no=22,missing=21,gain=6.86015,cover=30.7272
				21:[v2<3.56673] yes=41,no=42,missing=41,gain=3.25138,cover=3.24917
					41:leaf=-0.0127109,cover=1.74993
					42:leaf=0.00374408,cover=1.49924
				22:[v60<1.5425] yes=43,no=44,missing=43,gain=7.83396,cover=27.478
					43:[v13<4.04] yes=69,no=70,missing=69,gain=6.68174,cover=22.2306
						69:leaf=-0.00574184,cover=1.74889
						70:[v16<6.68945] yes=103,no=104,missing=103,gain=3.49902,cover=20.4817
							103:leaf=0.0136243,cover=17.7337
							104:leaf=0.00110878,cover=2.7481
					44:[v125<25] yes=71,no=72,missing=71,gain=3.00186,cover=5.24738
						71:leaf=-0.00998703,cover=1.99942
						72:[v87<8.94998] yes=105,no=106,missing=105,gain=3.34201,cover=3.24795
							105:leaf=-0.00672947,cover=1.24992
							106:leaf=0.0095951,cover=1.99803
	2:[v50<2.27863] yes=5,no=6,missing=5,gain=5.85247,cover=273.762
		5:[v110<1.5] yes=11,no=12,missing=11,gain=7.51474,cover=114.824
			11:[v82<8.87332] yes=23,no=24,missing=23,gain=5.87632,cover=52.694
				23:[v68<19.452] yes=45,no=46,missing=45,gain=6.2555,cover=46.9487
					45:[v25<0.702889] yes=73,no=74,missing=73,gain=2.60027,cover=45.6996
						73:[v25<0.516696] yes=107,no=108,missing=107,gain=3.09325,cover=34.2107
							107:leaf=0.0104111,cover=32.4621
							108:leaf=-0.00215853,cover=1.74858
						74:[v57<4.49666] yes=109,no=110,missing=109,gain=2.18629,cover=11.4889
							109:leaf=0.0176763,cover=10.2398
							110:leaf=0.00195151,cover=1.24912
					46:leaf=-0.00695423,cover=1.24907
				24:[v120<0.948857] yes=47,no=48,missing=47,gain=9.20328,cover=5.74531
					47:leaf=0.0115193,cover=2.74678
					48:[v59<9.92782] yes=75,no=76,missing=75,gain=0.551404,cover=2.99852
						75:leaf=-0.00238635,cover=1.24953
						76:leaf=-0.0130209,cover=1.74899
			12:[v50<2.26029] yes=25,no=26,missing=25,gain=1.92081,cover=62.1299
				25:[v28<8.39641] yes=49,no=50,missing=49,gain=0.092283,cover=60.8826
					49:[v129<2.5] yes=77,no=78,missing=77,gain=0.113896,cover=55.8915
						77:[v82<10.9661] yes=111,no=112,missing=111,gain=0.170225,cover=53.6463
							111:leaf=0.016702,cover=51.4008
							112:leaf=0.00709062,cover=2.24557
						78:leaf=0.0070656,cover=2.24519
					50:[v90<0.924172] yes=79,no=80,missing=79,gain=2.99626,cover=4.99104
						79:leaf=-0.000444659,cover=1.99724
						80:leaf=0.0143415,cover=2.9938
				26:leaf=0.00171196,cover=1.24734
		6:[v67<11.8314] yes=13,no=14,missing=13,gain=2.13794,cover=158.938
			13:[v51<12.193] yes=27,no=28,missing=27,gain=1.48047,cover=157.69
				27:[v129<2.5] yes=51,no=52,missing=51,gain=0.625234,cover=156.192
					51:leaf=0.0169316,cover=151.203
					52:[v72<3.5] yes=81,no=82,missing=82,gain=3.08177,cover=4.98885
						81:leaf=-0.000612797,cover=1.99564
						82:leaf=0.0143125,cover=2.99322
				28:leaf=0.00362528,cover=1.49831
			14:leaf=0.00184368,cover=1.24839
booster[7]
0:[v50<1.31098] yes=1,no=2,missing=1,gain=100.266,cover=788.999
	1:[v47<4.5] yes=3,no=4,missing=3,gain=41.9636,cover=425.304
		3:[v48<12.8866] yes=7,no=8,missing=7,gain=10.2157,cover=203.196
			7:[v14<9.85956] yes=15,no=16,missing=15,gain=5.91721,cover=153.255
				15:[v14<9.3727] yes=31,no=32,missing=31,gain=5.17456,cover=6.99295
					31:[v12<6.32204] yes=55,no=56,missing=55,gain=0.589798,cover=3.74562
						55:leaf=0.0122856,cover=1.74767
						56:leaf=0.00293373,cover=1.99796
					32:[v52<6] yes=57,no=58,missing=57,gain=1.60373,cover=3.24733
						57:leaf=0.00190759,cover=1.24878
						58:leaf=-0.010325,cover=1.99855
				16:[v117<15.8122] yes=33,no=34,missing=33,gain=6.51145,cover=146.262
					33:[v50<0.156261] yes=59,no=60,missing=59,gain=3.22787,cover=145.014
						59:[v107<3.5] yes=93,no=94,missing=93,gain=2.87165,cover=3.49703
							93:leaf=-0.00575353,cover=1.74841
							94:leaf=0.00877185,cover=1.74862
						60:[v72<1.5] yes=95,no=96,missing=96,gain=2.91097,cover=141.516
							95:leaf=0.0106417,cover=84.6215
							96:leaf=0.0142028,cover=56.895
					34:leaf=-0.00692978,cover=1.24877
			8:[v126<1.4498] yes=17,no=18,missing=17,gain=8.84042,cover=49.9412
				17:[v41<7.90134] yes=35,no=36,missing=35,gain=4.02262,cover=13.7342
					35:[v95<0.568029] yes=61,no=62,missing=61,gain=6.795,cover=9.98927
						61:[v8<0.232112] yes=97,no=98,missing=97,gain=0.401433,cover=2.49633
							97:leaf=0.0017673,cover=1.24785
							98:leaf=0.0107357,cover=1.24847
						62:[v86<1.67001] yes=99,no=100,missing=99,gain=5.62489,cover=7.49295
							99:leaf=-0.0129996,cover=5.74586
							100:leaf=0.00497172,cover=1.74709
					36:[v12<7.04198] yes=63,no=64,missing=63,gain=2.79931,cover=3.74493
						63:leaf=0.0127901,cover=1.99636
						64:leaf=-0.00211951,cover=1.74857
				18:[v16<6.49841] yes=37,no=38,missing=37,gain=9.98765,cover=36.207
					37:[v95<0.396603] yes=65,no=66,missing=65,gain=8.42658,cover=29.4626
						65:leaf=-0.00826091,cover=1.49868
						66:[v116<1.32433] yes=101,no=102,missing=101,gain=3.27149,cover=27.9639
							101:leaf=-0.000139088,cover=1.99922
							102:leaf=0.0130498,cover=25.9646
					38:[v80<2.92556] yes=67,no=68,missing=67,gain=6.5794,cover=6.74446
						67:leaf=-0.0120758,cover=2.74912
						68:[v50<0.680067] yes=103,no=104,missing=103,gain=3.81647,cover=3.99534
							103:leaf=0.0128345,cover=1.99696
							104:leaf=-0.00364351,cover=1.99838
		4:[v66<2.5] yes=9,no=10,missing=9,gain=31.1824,cover=222.107
			9:[v50<0.430636] yes=19,no=20,missing=19,gain=24.8437,cover=166.924
				19:[v66<1.5] yes=39,no=40,missing=39,gain=16.3352,cover=45.4885
					39:[v28<5.77614] yes=69,no=70,missing=69,gain=7.80316,cover=36.994
						69:[v12<6.50449] yes=105,no=106,missing=105,gain=5.64177,cover=29.4961
							105:leaf=0.00454524,cover=5.49936
							106:leaf=-0.00605524,cover=23.9968
						70:[v107<2.5] yes=107,no=108,missing=107,gain=4.64504,cover=7.49784
							107:leaf=0.0147026,cover=2.99861
							108:leaf=-8.99754e-05,cover=4.49923
					40:leaf=-0.016434,cover=8.49454
				20:[v126<1.66288] yes=41,no=42,missing=41,gain=10.8354,cover=121.436
					41:[v85<2.10688] yes=71,no=72,missing=71,gain=8.93956,cover=89.9544
						71:[v16<4.07792] yes=109,no=110,missing=109,gain=5.63662,cover=63.4645
							109:leaf=0.00284144,cover=55.7201
							110:leaf=0.0115909,cover=7.74438
						72:[v16<5.372] yes=111,no=112,missing=111,gain=5.30275,cover=26.4899
							111:leaf=-0.00591295,cover=17.2441
							112:leaf=0.00313894,cover=9.24578
					42:[v86<1.76724] yes=73,no=74,missing=73,gain=7.04364,cover=31.4812
						73:[v2<10.5434] yes=113,no=114,missing=113,gain=5.88836,cover=27.7322
							113:leaf=0.0119397,cover=25.2331
							114:leaf=-0.00307407,cover=2.49913
						74:[v88<1.09845] yes=115,no=116,missing=115,gain=3.28805,cover=3.74904
							115:leaf=-0.0100708,cover=1.99979
							116:leaf=0.00527542,cover=1.74924
			10:[v7<2.46529] yes=21,no=22,missing=21,gain=12.9064,cover=55.183
				21:[v50<0.308121] yes=43,no=44,missing=43,gain=5.54604,cover=47.1889
					43:[v112<10.5] yes=75,no=76,missing=75,gain=3.75533,cover=10.7428
						75:[v113<18] yes=117,no=118,missing=117,gain=3.45223,cover=5.99619
							117:leaf=0.00876709,cover=1.74869
							118:leaf=-0.00506931,cover=4.2475
						76:[v107<3.5] yes=119,no=120,missing=119,gain=1.10015,cover=4.74659
							119:leaf=0.0142864,cover=2.74799
							120:leaf=0.00302746,cover=1.9986
					44:[v113<2.5] yes=77,no=78,missing=77,gain=4.40163,cover=36.4461
						77:leaf=-0.00264921,cover=1.24813
						78:[v12<6.05588] yes=121,no=122,missing=121,gain=2.75737,cover=35.198
							121:leaf=0.00144834,cover=1.74843
							122:leaf=0.0152263,cover=33.4496
				22:[v109<5.51188] yes=45,no=46,missing=45,gain=9.86856,cover=7.99407
					45:[v126<2.13638] yes=79,no=80,missing=79,gain=5.74067,cover=5.24751
						79:leaf=-0.0140935,cover=3.99914
						80:leaf=0.00628617,cover=1.24837
					46:leaf=0.0115319,cover=2.74656
	2:[v50<2.27863] yes=5,no=6,missing=5,gain=18.4836,cover=363.696
		5:[v47<3.5] yes=11,no=12,missing=11,gain=7.6407,cover=206.128
			11:[v60<2.83152] yes=23,no=24,missing=23,gain=4.11208,cover=104.26
				23:[v48<16.2696] yes=47,no=48,missing=47,gain=2.19172,cover=103.011
					47:[v22<4133.5] yes=81,no=82,missing=81,gain=1.99635,cover=100.265
						81:[v50<2.26029] yes=123,no=124,missing=123,gain=1.59436,cover=98.2697
							123:leaf=0.0146137,cover=97.0226
							124:leaf=0.00169402,cover=1.24715
						82:leaf=0.00272384,cover=1.99565
					48:[v60<1.2142] yes=83,no=84,missing=83,gain=3.85293,cover=2.74607
						83:leaf=0.0114735,cover=1.49687
						84:leaf=-0.00680429,cover=1.2492
				24:leaf=-0.0024915,cover=1.24862
			12:[v22<1180] yes=25,no=26,missing=25,gain=5.53419,cover=101.868
				25:[v67<10.1639] yes=49,no=50,missing=49,gain=8.14362,cover=30.4657
					49:[v22<1137.5] yes=85,no=86,missing=85,gain=6.29342,cover=26.4689
						85:[v28<6.75968] yes=125,no=126,missing=125,gain=6.5581,cover=24.9705
							125:leaf=0.0107714,cover=22.2223
							126:leaf=-0.00430926,cover=2.74823
						86:leaf=-0.00835743,cover=1.49838
					50:[v24<4.5] yes=87,no=88,missing=87,gain=1.57145,cover=3.99679
						87:[v116<2.09158] yes=127,no=128,missing=127,gain=0.412534,cover=2.74783
							127:leaf=-0.0123371,cover=1.49864
							128:leaf=-0.00245784,cover=1.24918
						88:leaf=0.00196293,cover=1.24896
				26:[v98<10.2302] yes=51,no=52,missing=51,gain=3.51558,cover=71.402
					51:[v80<2.84767] yes=89,no=90,missing=89,gain=2.33573,cover=67.4049
						89:[v12<8.37689] yes=129,no=130,missing=129,gain=2.62409,cover=60.9098
							129:leaf=0.0126744,cover=59.4119
							130:leaf=-0.000439382,cover=1.49788
						90:[v50<1.46651] yes=131,no=132,missing=131,gain=6.43647,cover=6.49518
							131:leaf=0.0143001,cover=2.74804
							132:leaf=-0.00351899,cover=3.74714
					52:[v93<4.53305] yes=91,no=92,missing=91,gain=4.05743,cover=3.99702
						91:leaf=-0.00689706,cover=1.99921
						92:leaf=0.00959796,cover=1.99781
		6:[v48<16.137] yes=13,no=14,missing=13,gain=0.086896,cover=157.568
			13:[v99<2.05745] yes=27,no=28,missing=27,gain=0.0132743,cover=153.824
				27:leaf=0.0168259,cover=149.834
				28:[v98<6.421] yes=53,no=54,missing=53,gain=3.21882,cover=3.99036
					53:leaf=0.0139716,cover=2.74326
					54:leaf=-0.00275762,cover=1.2471
			14:[v2<4.16412] yes=29,no=30,missing=29,gain=2.96988,cover=3.74371
				29:leaf=0.0136957,cover=2.49525
				30:leaf=-0.00257012,cover=1.24847
booster[8]
0:[v47<4.5] yes=1,no=2,missing=1,gain=51.8298,cover=789.611
	1:[v86<1.43625] yes=3,no=4,missing=3,gain=8.45894,cover=407.4
		3:[v78<18.3333] yes=7,no=8,missing=7,gain=4.61319,cover=345.533
			7:[v103<8.81698] yes=15,no=16,missing=15,gain=4.65786,cover=343.785
				15:[v76<2.19547] yes=29,no=30,missing=29,gain=2.29614,cover=342.037
					29:[v20<18.3217] yes=53,no=54,missing=53,gain=5.83478,cover=244.062
						53:[v106<12.3603] yes=77,no=78,missing=77,gain=1.75032,cover=230.346
							77:leaf=0.0129837,cover=227.602
							78:leaf=0.00337236,cover=2.74438
						54:[v52<5.5] yes=79,no=80,missing=79,gain=5.8024,cover=13.7156
							79:leaf=-0.00220382,cover=5.48944
							80:leaf=0.0104431,cover=8.22615
					30:[v125<88.5] yes=55,no=56,missing=55,gain=1.6857,cover=97.975
						55:[v27<5.10595] yes=81,no=82,missing=81,gain=1.73679,cover=95.7305
							81:leaf=0.0152593,cover=94.4826
							82:leaf=0.00177259,cover=1.24787
						56:leaf=0.00398463,cover=2.24457
				16:leaf=-0.00207191,cover=1.74831
			8:leaf=-0.00207617,cover=1.74807
		4:[v92<0.465257] yes=9,no=10,missing=9,gain=7.03638,cover=61.8668
			9:[v40<12.7599] yes=17,no=18,missing=17,gain=5.14274,cover=4.99171
				17:[v125<44.5] yes=31,no=32,missing=31,gain=2.72963,cover=3.74492
					31:leaf=-0.0136863,cover=1.99818
					32:leaf=0.00134954,cover=1.74674
				18:leaf=0.0105766,cover=1.24679
			10:[v48<16.0476] yes=19,no=20,missing=19,gain=6.74436,cover=56.8751
				19:[v118<10.3322] yes=33,no=34,missing=33,gain=4.55476,cover=52.8794
					33:[v22<3238.5] yes=57,no=58,missing=57,gain=3.94293,cover=37.1583
						57:[v114<8.20932] yes=83,no=84,missing=83,gain=1.41022,cover=29.6746
							83:leaf=0.00197754,cover=1.2489
							84:leaf=0.0146779,cover=28.4257
						58:[v15<2.58458] yes=85,no=86,missing=85,gain=5.78843,cover=7.48367
							85:leaf=-0.00712818,cover=1.99673
							86:leaf=0.010016,cover=5.48694
					34:[v40<12.1153] yes=59,no=60,missing=59,gain=6.71881,cover=15.7211
						59:[v62<3.5] yes=87,no=88,missing=88,gain=7.93187,cover=9.23435
							87:leaf=-0.00544399,cover=6.99148
							88:leaf=0.0130993,cover=2.24287
						60:[v40<14.682] yes=89,no=90,missing=89,gain=3.23867,cover=6.48679
							89:leaf=0.0159271,cover=4.98855
							90:leaf=-0.000309523,cover=1.49823
				20:[v95<0.841336] yes=35,no=36,missing=35,gain=5.58563,cover=3.99565
					35:leaf=0.00861612,cover=1.74652
					36:leaf=-0.010833,cover=2.24913
	2:[v114<10.8365] yes=5,no=6,missing=5,gain=27.7142,cover=382.211
		5:[v11<15.7431] yes=11,no=12,missing=11,gain=10.1087,cover=59.9501
			11:[v114<8.85927] yes=21,no=22,missing=21,gain=6.06329,cover=50.2064
				21:[v114<8.6436] yes=37,no=38,missing=37,gain=9.11688,cover=19.2379
					37:[v76<1.88739] yes=61,no=62,missing=61,gain=3.14478,cover=16.2387
						61:[v114<7.7494] yes=91,no=92,missing=91,gain=3.79015,cover=11.491
							91:leaf=-0.000934903,cover=6.24631
							92:leaf=0.00994703,cover=5.24474
						62:[v26<2.18747] yes=93,no=94,missing=93,gain=5.13801,cover=4.74762
							93:leaf=-0.0106771,cover=3.24923
							94:leaf=0.00770106,cover=1.49839
					38:leaf=-0.0150848,cover=2.99921
				22:[v40<14.5926] yes=39,no=40,missing=39,gain=8.55001,cover=30.9685
					39:[v126<1.75707] yes=63,no=64,missing=63,gain=5.98263,cover=18.9859
						63:[v71<1.5] yes=95,no=96,missing=95,gain=4.10533,cover=15.9892
							95:leaf=0.0083435,cover=2.49826
							96:leaf=-0.0037571,cover=13.4909
						64:leaf=0.0121259,cover=2.99672
					40:[v116<2.49006] yes=65,no=66,missing=65,gain=5.50371,cover=11.9826
						65:[v22<1608] yes=97,no=98,missing=97,gain=0.86948,cover=9.73593
							97:leaf=0.00628633,cover=2.74689
							98:leaf=0.0168759,cover=6.98904
						66:leaf=-0.00174968,cover=2.24669
			12:[v22<2250] yes=23,no=24,missing=23,gain=6.72146,cover=9.74367
				23:[v49<9.57551] yes=41,no=42,missing=41,gain=1.53884,cover=5.74544
					41:leaf=-0.0162885,cover=4.49795
					42:leaf=-0.00204711,cover=1.24749
				24:[v52<8.5] yes=43,no=44,missing=43,gain=5.76941,cover=3.99823
					43:leaf=0.010689,cover=2.24912
					44:leaf=-0.00904947,cover=1.74911
		6:[v114<16.4582] yes=13,no=14,missing=13,gain=15.2112,cover=322.261
			13:[v40<6.53245] yes=25,no=26,missing=25,gain=10.0698,cover=259.651
				25:[v114<16.3734] yes=45,no=46,missing=45,gain=2.48926,cover=3.2488
					45:leaf=-0.0134122,cover=1.99987
					46:leaf=0.00201879,cover=1.24893
				26:[v78<13.2565] yes=47,no=48,missing=47,gain=6.73971,cover=256.402
					47:[v59<10.7243] yes=67,no=68,missing=67,gain=7.90449,cover=183.982
						67:[v40<12.5932] yes=99,no=100,missing=99,gain=7.29544,cover=151.287
							99:leaf=0.00654417,cover=131.32
							100:leaf=0.0131313,cover=19.9677
						68:[v22<362] yes=101,no=102,missing=101,gain=4.93341,cover=32.6949
							101:leaf=-0.000313592,cover=2.49713
							102:leaf=0.0141703,cover=30.1978
					48:[v48<16.8241] yes=69,no=70,missing=69,gain=5.88792,cover=72.4198
						69:[v48<16.4397] yes=103,no=104,missing=103,gain=6.39526,cover=68.4256
							103:leaf=0.00452035,cover=66.9259
							104:leaf=-0.0119653,cover=1.49966
						70:leaf=0.0154508,cover=3.99428
			14:[v7<2.58409] yes=27,no=28,missing=27,gain=7.38897,cover=62.6096
				27:[v40<4.29925] yes=49,no=50,missing=49,gain=1.86378,cover=54.1233
					49:[v22<724.5] yes=71,no=72,missing=71,gain=1.68446,cover=25.1973
						71:[v22<446.5] yes=105,no=106,missing=105,gain=0.853613,cover=2.49547
							105:leaf=0.00622881,cover=1.24792
							106:leaf=-0.00268961,cover=1.24755
						72:[v40<4.20954] yes=107,no=108,missing=107,gain=1.0177,cover=22.7018
							107:leaf=0.0125103,cover=21.4551
							108:leaf=0.00166613,cover=1.24672
					50:leaf=0.0164202,cover=28.926
				28:[v95<0.461061] yes=51,no=52,missing=51,gain=4.9232,cover=8.48625
					51:[v124<0.170814] yes=73,no=74,missing=73,gain=0.965936,cover=3.74303
						73:leaf=0.0137217,cover=2.49555
						74:leaf=0.00176412,cover=1.24747
					52:[v68<18.3243] yes=75,no=76,missing=75,gain=5.75454,cover=4.74323
						75:leaf=-0.0114988,cover=2.49861
						76:leaf=0.00711176,cover=2.24462
booster[9]
0:[v47<4.5] yes=1,no=2,missing=1,gain=41.1552,cover=796.716
	1:[v86<1.39586] yes=3,no=4,missing=3,gain=7.87477,cover=411.377
		3:[v10<0.776806] yes=7,no=8,missing=7,gain=5.19134,cover=337.827
			7:[v69<8.29589] yes=15,no=16,missing=15,gain=4.19837,cover=40.4073
				15:[v63<1.05625] yes=31,no=32,missing=31,gain=2.87399,cover=25.944
					31:[v112<9.5] yes=61,no=62,missing=61,gain=2.6229,cover=22.1988
						61:[v112<5.5] yes=105,no=106,missing=105,gain=1.36426,cover=8.73121
							105:leaf=0.00663854,cover=3.74145
							106:leaf=-0.000724484,cover=4.98975
						62:[v112<18.5] yes=107,no=108,missing=107,gain=1.4129,cover=13.4676
							107:leaf=0.0123126,cover=9.22691
							108:leaf=0.00402687,cover=4.24066
					32:[v20<17.557] yes=63,no=64,missing=63,gain=3.4518,cover=3.74524
						63:leaf=-0.00941124,cover=1.74838
						64:leaf=0.00615113,cover=1.99687
				16:[v123<1.36468] yes=33,no=34,missing=33,gain=4.30231,cover=14.4633
					33:leaf=-0.00263391,cover=1.24806
					34:[v114<15.9125] yes=65,no=66,missing=65,gain=1.82179,cover=13.2152
						65:[v58<17.8571] yes=109,no=110,missing=109,gain=1.00612,cover=11.9675
							109:leaf=0.017317,cover=10.2212
							110:leaf=0.00491991,cover=1.74631
						66:leaf=0.00176628,cover=1.24774
			8:[v36<16.0575] yes=17,no=18,missing=17,gain=2.57564,cover=297.42
				17:[v125<88.5] yes=35,no=36,missing=35,gain=3.11875,cover=284.205
					35:[v62<1.5] yes=67,no=68,missing=68,gain=2.3186,cover=279.969
						67:[v77<8.92408] yes=111,no=112,missing=111,gain=4.30959,cover=130.807
							111:leaf=0.0125933,cover=128.312
							112:leaf=-0.000485057,cover=2.49544
						68:[v125<87.5] yes=113,no=114,missing=113,gain=1.69575,cover=149.162
							113:leaf=0.0148828,cover=147.916
							114:leaf=0.00166417,cover=1.24649
					36:[v45<8.18338] yes=69,no=70,missing=69,gain=3.63764,cover=4.23596
						69:[v62<6.00001] yes=115,no=116,missing=116,gain=0.691646,cover=2.98802
							115:leaf=0.0119758,cover=1.74324
							116:leaf=0.00151084,cover=1.24478
						70:leaf=-0.00709249,cover=1.24794
				18:[v32<1.42856] yes=37,no=38,missing=37,gain=4.43334,cover=13.2148
					37:leaf=0.0153003,cover=4.23541
					38:[v13<4.25546] yes=71,no=72,missing=71,gain=7.04348,cover=8.9794
						71:[v9<9.44617] yes=117,no=118,missing=117,gain=4.15125,cover=5.48798
							117:leaf=-0.00944742,cover=3.4944
							118:leaf=0.00597818,cover=1.99358
						72:leaf=0.0126127,cover=3.49142
		4:[v70<10.257] yes=9,no=10,missing=9,gain=11.412,cover=73.5499
			9:[v90<0.706368] yes=19,no=20,missing=19,gain=5.07618,cover=6.4877
				19:leaf=0.00838138,cover=1.74408
				20:[v16<4.56162] yes=39,no=40,missing=39,gain=2.66463,cover=4.74363
					39:leaf=0.00130345,cover=1.7459
					40:leaf=-0.012832,cover=2.99772
			10:[v19<0.380781] yes=21,no=22,missing=21,gain=7.28108,cover=67.0622
				21:[v120<0.529827] yes=41,no=42,missing=41,gain=5.45071,cover=59.5752
					41:[v77<8.4409] yes=73,no=74,missing=73,gain=4.67434,cover=4.24095
						73:[v114<14.3441] yes=119,no=120,missing=119,gain=0.404663,cover=2.49337
							119:leaf=0.010615,cover=1.24731
							120:leaf=0.00170095,cover=1.24606
						74:leaf=-0.00951261,cover=1.74759
					42:[v24<2.5] yes=75,no=76,missing=75,gain=4.03418,cover=55.3343
						75:[v97<10.4965] yes=121,no=122,missing=121,gain=3.54414,cover=6.98117
							121:leaf=0.00801392,cover=5.23461
							122:leaf=-0.00592149,cover=1.74656
						76:[v92<0.461517] yes=123,no=124,missing=123,gain=2.42717,cover=48.3531
							123:leaf=0.00374744,cover=3.49167
							124:leaf=0.0137858,cover=44.8614
				22:[v19<0.486044] yes=43,no=44,missing=43,gain=6.70323,cover=7.48696
					43:[v121<2.32608] yes=77,no=78,missing=77,gain=4.65162,cover=4.24393
						77:leaf=0.0062026,cover=1.24639
						78:leaf=-0.012539,cover=2.99755
					44:[v2<3.36726] yes=79,no=80,missing=79,gain=0.670793,cover=3.24302
						79:leaf=0.0019653,cover=1.24814
						80:leaf=0.0127071,cover=1.99488
	2:[v114<12.8234] yes=5,no=6,missing=5,gain=26.6743,cover=385.339
		5:[v56<77.5] yes=11,no=12,missing=11,gain=12.2092,cover=123.35
			11:[v16<5.41865] yes=23,no=24,missing=23,gain=8.94875,cover=102.614
				23:[v9<9.21547] yes=45,no=46,missing=45,gain=12.7369,cover=82.3951
					45:[v56<50] yes=81,no=82,missing=81,gain=9.95533,cover=67.9069
						81:[v54<1.184] yes=125,no=126,missing=125,gain=8.01788,cover=35.2112
							125:leaf=0.00327842,cover=31.7132
							126:leaf=-0.0109831,cover=3.49802
						82:[v114<12.488] yes=127,no=128,missing=127,gain=6.74331,cover=32.6957
							127:leaf=0.0106156,cover=29.9491
							128:leaf=-0.00444006,cover=2.74659
					46:[v69<8.95545] yes=83,no=84,missing=83,gain=5.40819,cover=14.4882
						83:[v17<3.28501] yes=129,no=130,missing=129,gain=3.19681,cover=5.49552
							129:leaf=0.00903283,cover=2.74745
							130:leaf=-0.00416723,cover=2.74806
						84:[v26<1.23146] yes=131,no=132,missing=131,gain=3.90297,cover=8.99268
							131:leaf=0.00369991,cover=1.49864
							132:leaf=-0.0118396,cover=7.49404
				24:[v20<18.7998] yes=47,no=48,missing=47,gain=4.7628,cover=20.2191
					47:[v114<7.96289] yes=85,no=86,missing=85,gain=5.57135,cover=18.7201
						85:leaf=-0.00401557,cover=1.49922
						86:[v131<0.841556] yes=133,no=134,missing=133,gain=2.08533,cover=17.2209
							133:leaf=0.00551504,cover=3.99384
							134:leaf=0.0157879,cover=13.2271
					48:leaf=-0.00403864,cover=1.49897
			12:[v125<29.5] yes=25,no=26,missing=25,gain=6.34665,cover=20.7355
				25:[v35<8.001] yes=49,no=50,missing=49,gain=1.21206,cover=6.49715
					49:[v36<12.5937] yes=87,no=88,missing=87,gain=1.47782,cover=3.49901
						87:leaf=-0.00922081,cover=1.74949
						88:leaf=0.00173193,cover=1.74952
					50:leaf=-0.0147947,cover=2.99814
				26:[v17<3.12943] yes=51,no=52,missing=51,gain=6.5803,cover=14.2384
					51:[v37<0.897225] yes=89,no=90,missing=89,gain=3.41973,cover=9.49133
						89:[v20<15.3073] yes=135,no=136,missing=135,gain=4.05723,cover=8.24222
							135:leaf=0.00130009,cover=4.99549
							136:leaf=0.0148885,cover=3.24674
						90:leaf=-0.00658226,cover=1.24911
					52:[v7<2.60178] yes=91,no=92,missing=91,gain=3.83138,cover=4.74706
						91:leaf=-0.0129511,cover=3.24856
						92:leaf=0.00371676,cover=1.4985
		6:[v10<1.59738] yes=13,no=14,missing=13,gain=17.7064,cover=261.989
			13:[v120<1.75109] yes=27,no=28,missing=27,gain=16.1093,cover=195.674
				27:[v77<8.25839] yes=53,no=54,missing=53,gain=7.48843,cover=172.196
					53:[v45<10.1524] yes=93,no=94,missing=93,gain=6.34873,cover=157.966
						93:[v114<16.2685] yes=137,no=138,missing=137,gain=6.49741,cover=137.005
							137:leaf=0.00707446,cover=99.103
							138:leaf=0.0121526,cover=37.902
						94:[v92<0.405294] yes=139,no=140,missing=139,gain=1.61775,cover=20.9607
							139:leaf=0.00192051,cover=1.24846
							140:leaf=0.0154184,cover=19.7122
					54:[v35<9.69438] yes=95,no=96,missing=95,gain=7.2292,cover=14.2302
						95:[v42<13.6111] yes=141,no=142,missing=141,gain=6.29046,cover=9.48927
							141:leaf=-0.00955402,cover=5.49523
							142:leaf=0.00549034,cover=3.99404
						96:[v125<25] yes=143,no=144,missing=143,gain=3.49341,cover=4.74095
							143:leaf=-0.00240388,cover=1.24888
							144:leaf=0.0148583,cover=3.49207
				28:[v26<2.22526] yes=55,no=56,missing=55,gain=8.27981,cover=23.4779
					55:[v83<2.52976] yes=97,no=98,missing=97,gain=8.04834,cover=19.4821
						97:[v70<9.06669] yes=145,no=146,missing=145,gain=5.36004,cover=11.2434
							145:leaf=0.004353,cover=2.24835
							146:leaf=-0.0112307,cover=8.99504
						98:[v113<11] yes=147,no=148,missing=147,gain=6.81222,cover=8.23872
							147:leaf=-0.00689544,cover=2.7476
							148:leaf=0.0102539,cover=5.49112
					56:[v35<8.00652] yes=99,no=100,missing=99,gain=1.01564,cover=3.99581
						99:leaf=0.0142443,cover=2.74707
						100:leaf=0.00193794,cover=1.24874
			14:[v45<10.4967] yes=29,no=30,missing=29,gain=4.53409,cover=66.3151
				29:[v113<2] yes=57,no=58,missing=57,gain=1.61613,cover=59.5808
					57:leaf=0.0018308,cover=1.24801
					58:[v2<10.2883] yes=101,no=102,missing=101,gain=1.20345,cover=58.3328
						101:[v62<2.5] yes=149,no=150,missing=150,gain=1.01391,cover=53.3451
							149:leaf=0.0159362,cover=50.6014
							150:leaf=0.00608347,cover=2.74376
						102:[v2<10.9733] yes=151,no=152,missing=151,gain=4.132,cover=4.98761
							151:leaf=-0.00440579,cover=1.49766
							152:leaf=0.012571,cover=3.48995
				30:[v125<37.5] yes=59,no=60,missing=59,gain=4.52163,cover=6.73432
					59:leaf=-0.00508618,cover=2.24637
					60:[v45<10.8911] yes=103,no=104,missing=103,gain=3.36751,cover=4.48795
						103:leaf=-0.00250004,cover=1.24796
						104:leaf=0.0144951,cover=3.24
booster[10]
0:[v110<1.5] yes=1,no=2,missing=1,gain=57.0519,cover=788.795
	1:[v66<2.5] yes=3,no=4,missing=3,gain=39.7493,cover=377.476
		3:[v12<6.22309] yes=7,no=8,missing=7,gain=17.1275,cover=281.294
			7:[v127<3.29358] yes=15,no=16,missing=15,gain=8.21735,cover=54.1055
				15:[v14<9.28104] yes=31,no=32,missing=31,gain=5.08028,cover=44.6226
					31:leaf=-0.00420185,cover=1.49862
					32:[v35<10.5693] yes=63,no=64,missing=63,gain=5.32584,cover=43.124
						63:[v114<8.43344] yes=109,no=110,missing=109,gain=2.15348,cover=40.8769
							109:leaf=0.00134815,cover=1.74707
							110:leaf=0.0135363,cover=39.1299
						64:leaf=-0.00195461,cover=2.24711
				16:[v14<10.8614] yes=33,no=34,missing=33,gain=4.8693,cover=9.48286
					33:[v4<4.30879] yes=65,no=66,missing=65,gain=1.84919,cover=3.49712
						65:leaf=0.00196865,cover=1.24874
						66:leaf=-0.0110408,cover=2.24838
					34:[v12<6.15707] yes=67,no=68,missing=67,gain=3.95404,cover=5.98574
						67:[v41<6.97946] yes=111,no=112,missing=111,gain=1.06789,cover=3.98991
							111:leaf=0.0139972,cover=2.74339
							112:leaf=0.00169506,cover=1.24652
						68:leaf=-0.00390812,cover=1.99582
			8:[v14<11.9727] yes=17,no=18,missing=17,gain=12.5089,cover=227.188
				17:[v12<6.44881] yes=35,no=36,missing=35,gain=12.085,cover=136.087
					35:[v12<6.37856] yes=69,no=70,missing=69,gain=9.19474,cover=45.9334
						69:[v107<3.5] yes=113,no=114,missing=113,gain=5.27495,cover=34.2024
							113:leaf=0.00661217,cover=17.7237
							114:leaf=-0.00108878,cover=16.4788
						70:[v14<11.4355] yes=115,no=116,missing=115,gain=2.7276,cover=11.731
							115:leaf=0.0168665,cover=6.98877
							116:leaf=0.00550714,cover=4.74223
					36:[v78<13.8234] yes=71,no=72,missing=71,gain=10.3876,cover=90.1536
						71:[v108<1.71277] yes=117,no=118,missing=117,gain=11.8909,cover=68.6711
							117:leaf=-0.00127282,cover=48.4489
							118:leaf=0.00768345,cover=20.2221
						72:[v125<16.5] yes=119,no=120,missing=119,gain=5.58747,cover=21.4825
							119:leaf=0.00425769,cover=3.49648
							120:leaf=-0.00856481,cover=17.986
				18:[v114<13.7167] yes=37,no=38,missing=37,gain=9.72908,cover=91.1014
					37:[v16<5.41593] yes=73,no=74,missing=73,gain=8.34296,cover=47.6838
						73:[v35<8.19413] yes=121,no=122,missing=121,gain=7.62213,cover=36.4549
							121:leaf=0.00297904,cover=29.961
							122:leaf=-0.00826531,cover=6.49389
						74:[v102<3.56138] yes=123,no=124,missing=123,gain=3.79555,cover=11.2288
							123:leaf=0.012677,cover=9.48086
							124:leaf=-0.00215824,cover=1.74796
					38:[v127<3.02732] yes=75,no=76,missing=75,gain=3.59919,cover=43.4176
						75:[v114<14.8622] yes=125,no=126,missing=125,gain=3.38717,cover=31.6849
							125:leaf=0.0150116,cover=15.714
							126:leaf=0.00754725,cover=15.9709
						76:[v77<7.38434] yes=127,no=128,missing=127,gain=8.26352,cover=11.7327
							127:leaf=0.00969469,cover=8.23709
							128:leaf=-0.00702731,cover=3.49563
		4:[v12<6.68287] yes=9,no=10,missing=9,gain=4.07143,cover=96.1824
			9:[v114<17.5679] yes=19,no=20,missing=19,gain=0.995267,cover=64.0297
				19:[v16<6.88754] yes=39,no=40,missing=39,gain=0.209149,cover=43.351
					39:leaf=0.0154047,cover=41.3564
					40:leaf=0.00605463,cover=1.99458
				20:[v12<5.97814] yes=41,no=42,missing=41,gain=3.8396,cover=20.6787
					41:leaf=-0.00236058,cover=1.74661
					42:[v107<1.5] yes=77,no=78,missing=77,gain=2.94252,cover=18.932
						77:leaf=0.00077465,cover=2.24295
						78:[v125<39.5] yes=129,no=130,missing=129,gain=1.43889,cover=16.6891
							129:leaf=0.00714372,cover=5.72795
							130:leaf=0.0156453,cover=10.9611
			10:[v43<2.12118] yes=21,no=22,missing=21,gain=5.87186,cover=32.1527
				21:[v114<15.0401] yes=43,no=44,missing=43,gain=1.74949,cover=23.6714
					43:[v14<11.2294] yes=79,no=80,missing=79,gain=3.81783,cover=5.23728
						79:leaf=-0.00691746,cover=1.24917
						80:[v114<14.2685] yes=131,no=132,missing=131,gain=1.39117,cover=3.98812
							131:leaf=0.0130953,cover=2.24258
							132:leaf=0.00122637,cover=1.74553
					44:[v12<6.73883] yes=81,no=82,missing=81,gain=0.625262,cover=18.4341
						81:[v14<11.7301] yes=133,no=134,missing=133,gain=0.0281412,cover=2.49234
							133:leaf=0.0016504,cover=1.24636
							134:leaf=0.00607868,cover=1.24598
						82:[v12<7.92087] yes=135,no=136,missing=135,gain=0.364043,cover=15.9418
							135:leaf=0.0143534,cover=14.1972
							136:leaf=0.00479497,cover=1.74458
				22:[v68<18.63] yes=45,no=46,missing=45,gain=6.37977,cover=8.48134
					45:[v78<11.4457] yes=83,no=84,missing=83,gain=7.31265,cover=4.99178
						83:leaf=0.0104659,cover=1.24531
						84:[v125<40.5] yes=137,no=138,missing=137,gain=0.793096,cover=3.74647
							137:leaf=-0.00249829,cover=1.24795
							138:leaf=-0.0144221,cover=2.49851
					46:[v30<3] yes=85,no=86,missing=85,gain=0.832163,cover=3.48956
						85:leaf=0.0131122,cover=2.24281
						86:leaf=0.00176485,cover=1.24675
	2:[v14<11.9119] yes=5,no=6,missing=5,gain=11.365,cover=411.319
		5:[v12<6.48577] yes=11,no=12,missing=11,gain=12.1311,cover=149.751
			11:[v14<10.072] yes=23,no=24,missing=23,gain=5.41533,cover=84.1946
				23:[v91<1.5] yes=47,no=48,missing=47,gain=7.68185,cover=13.2184
					47:[v66<1.5] yes=87,no=88,missing=87,gain=3.6007,cover=4.49321
						87:leaf=0.00405397,cover=2.24564
						88:leaf=-0.0111439,cover=2.24756
					48:[v15<1.26254] yes=89,no=90,missing=89,gain=3.57626,cover=8.72517
						89:[v107<2.5] yes=139,no=140,missing=139,gain=2.60883,cover=3.7423
							139:leaf=0.0105444,cover=1.24654
							140:leaf=-0.00340162,cover=2.49576
						90:leaf=0.0157518,cover=4.98287
				24:[v118<9.64004] yes=49,no=50,missing=49,gain=3.12569,cover=70.9762
					49:[v49<8.92252] yes=91,no=92,missing=91,gain=2.18729,cover=60.0108
						91:[v114<16.9853] yes=141,no=142,missing=141,gain=1.97152,cover=57.0204
							141:leaf=0.0153782,cover=53.7805
							142:leaf=0.0051068,cover=3.23994
						92:[v91<1.5] yes=143,no=144,missing=143,gain=2.93281,cover=2.99042
							143:leaf=-0.00445759,cover=1.49694
							144:leaf=0.0112454,cover=1.49348
					50:[v43<2.98519] yes=93,no=94,missing=93,gain=3.54952,cover=10.9654
						93:[v11<16.1798] yes=145,no=146,missing=145,gain=2.77893,cover=9.46948
							145:leaf=0.0115246,cover=8.22229
							146:leaf=-0.00262588,cover=1.2472
						94:leaf=-0.00460309,cover=1.49591
			12:[v32<1.42427] yes=25,no=26,missing=25,gain=12.5863,cover=65.5569
				25:[v14<11.8588] yes=51,no=52,missing=51,gain=3.33673,cover=39.1154
					51:[v125<6.5] yes=95,no=96,missing=95,gain=3.25272,cover=34.3811
						95:leaf=-0.00288608,cover=1.24553
						96:[v114<15.1524] yes=147,no=148,missing=147,gain=2.36597,cover=33.1356
							147:leaf=0.0130476,cover=26.1572
							148:leaf=0.00532387,cover=6.97837
					52:[v72<1.5] yes=97,no=98,missing=98,gain=3.17328,cover=4.73426
						97:[v20<17.6125] yes=149,no=150,missing=149,gain=2.45528,cover=2.74304
							149:leaf=0.00334327,cover=1.4953
							150:leaf=-0.0115733,cover=1.24774
						98:leaf=0.00914708,cover=1.99122
				26:[v97<10.3603] yes=53,no=54,missing=53,gain=9.64876,cover=26.4415
					53:[v91<4] yes=99,no=100,missing=99,gain=9.19672,cover=23.9432
						99:[v15<1.96205] yes=151,no=152,missing=151,gain=8.5554,cover=15.4579
							151:leaf=-0.00953515,cover=1.74721
							152:leaf=0.010293,cover=13.7107
						100:[v49<8.65867] yes=153,no=154,missing=153,gain=7.99199,cover=8.48528
							153:leaf=-0.00930439,cover=6.98867
							154:leaf=0.011461,cover=1.49662
					54:leaf=-0.0145561,cover=2.49834
		6:[v15<2.1526] yes=13,no=14,missing=13,gain=5.49225,cover=261.567
			13:[v14<12.8741] yes=27,no=28,missing=27,gain=1.99354,cover=203.282
				27:[v41<8.90334] yes=55,no=56,missing=55,gain=3.61643,cover=82.1477
					55:[v12<6.77536] yes=101,no=102,missing=101,gain=3.27168,cover=80.1521
						101:[v125<7.5] yes=155,no=156,missing=155,gain=3.97497,cover=48.5218
							155:leaf=-0.000820891,cover=1.49297
							156:leaf=0.0152214,cover=47.0288
						102:[v62<1.5] yes=157,no=158,missing=158,gain=2.8744,cover=31.6303
							157:leaf=0.00589964,cover=14.9541
							158:leaf=0.012624,cover=16.6762
					56:leaf=-0.000493117,cover=1.99561
				28:[v88<4.33481] yes=57,no=58,missing=57,gain=1.94427,cover=121.135
					57:[v72<24] yes=103,no=104,missing=104,gain=0.926983,cover=118.892
						103:[v127<6.47858] yes=159,no=160,missing=159,gain=0.612099,cover=106.198
							159:leaf=0.0162104,cover=104.208
							160:leaf=0.00576797,cover=1.99045
						104:[v115<7.67857] yes=161,no=162,missing=161,gain=4.49124,cover=12.6937
							161:leaf=0.00179712,cover=4.23129
							162:leaf=0.0146707,cover=8.46241
					58:leaf=0.00392967,cover=2.24246
			14:[v15<2.18526] yes=29,no=30,missing=29,gain=5.98167,cover=58.2852
				29:[v102<2.86402] yes=59,no=60,missing=59,gain=3.32813,cover=2.49194
					59:leaf=0.00594563,cover=1.24415
					60:leaf=-0.0115282,cover=1.24779
				30:[v115<10.3779] yes=61,no=62,missing=61,gain=4.49926,cover=55.7932
					61:[v4<2.97621] yes=105,no=106,missing=105,gain=4.48835,cover=28.1564
						105:[v33<3.73971] yes=163,no=164,missing=163,gain=7.46016,cover=9.23003
							163:leaf=-0.00476651,cover=5.9918
							164:leaf=0.012079,cover=3.23824
						106:[v43<2.88081] yes=165,no=166,missing=165,gain=3.79186,cover=18.9264
							165:leaf=0.0117708,cover=17.1814
							166:leaf=-0.00244884,cover=1.74501
					62:[v108<1.28283] yes=107,no=108,missing=107,gain=1.73307,cover=27.6368
						107:[v11<15.0247] yes=167,no=168,missing=167,gain=3.42666,cover=3.2372
							167:leaf=0.0119508,cover=1.74254
							168:leaf=-0.00470926,cover=1.49466
						108:[v78<11.51] yes=169,no=170,missing=169,gain=2.20923,cover=24.3996
							169:leaf=0.00509566,cover=3.23839
							170:leaf=0.0161674,cover=21.1612
booster[11]
0:[v10<1.73961] yes=1,no=2,missing=1,gain=44.3561,cover=798.033
	1:[v66<2.5] yes=3,no=4,missing=3,gain=24.0524,cover=520.191
		3:[v56<77.5] yes=7,no=8,missing=7,gain=21.7127,cover=399.43
			7:[v34<7.02511] yes=13,no=14,missing=13,gain=12.4898,cover=360.24
				13:[v56<5.5] yes=23,no=24,missing=23,gain=15.2124,cover=277.455
					23:[v78<12.7892] yes=41,no=42,missing=41,gain=8.39909,cover=40.1917
						41:[v15<1.28382] yes=71,no=72,missing=71,gain=6.15763,cover=25.4569
							71:leaf=0.00246558,cover=17.2278
							72:leaf=0.0127838,cover=8.22904
						42:[v26<1.68904] yes=73,no=74,missing=73,gain=3.29358,cover=14.7348
							73:leaf=0.00137636,cover=7.74262
							74:leaf=-0.00762696,cover=6.99216
					24:[v56<34.5] yes=43,no=44,missing=43,gain=9.44567,cover=237.264
						43:[v23<0.532263] yes=75,no=76,missing=75,gain=8.02315,cover=67.7089
							75:leaf=0.0136707,cover=62.9723
							76:leaf=0.000150634,cover=4.73663
						44:[v10<0.547047] yes=77,no=78,missing=77,gain=5.83849,cover=169.555
							77:leaf=0.000744268,cover=10.2311
							78:leaf=0.00861258,cover=159.324
				14:[v114<15.7642] yes=25,no=26,missing=25,gain=7.96208,cover=82.7848
					25:[v112<4.5] yes=45,no=46,missing=45,gain=8.65593,cover=57.8676
						45:[v91<2.5] yes=79,no=80,missing=79,gain=2.13093,cover=7.48831
							79:leaf=-0.00050608,cover=2.99353
							80:leaf=-0.01117,cover=4.49479
						46:[v9<9.73009] yes=81,no=82,missing=81,gain=4.78799,cover=50.3792
							81:leaf=0.00505551,cover=39.3981
							82:leaf=-0.00223023,cover=10.9811
					26:[v34<8.11156] yes=47,no=48,missing=47,gain=6.23197,cover=24.9173
						47:[v37<1.29065] yes=83,no=84,missing=83,gain=4.88038,cover=16.4375
							83:leaf=0.0138646,cover=14.6937
							84:leaf=-0.00250881,cover=1.74386
						48:[v114<16.4208] yes=85,no=86,missing=85,gain=3.93878,cover=8.47972
							85:leaf=-0.00351201,cover=5.49162
							86:leaf=0.00914499,cover=2.98811
			8:[v56<79.5] yes=15,no=16,missing=15,gain=8.28112,cover=39.1895
				15:[v7<2.5983] yes=27,no=28,missing=27,gain=5.71431,cover=32.9634
					27:[v57<3.84599] yes=49,no=50,missing=49,gain=7.27924,cover=25.7241
						49:[v98<6.82231] yes=87,no=88,missing=87,gain=5.72635,cover=18.7317
							87:leaf=-0.00429053,cover=13.9878
							88:leaf=0.00746409,cover=4.74394
						50:[v70<14.393] yes=89,no=90,missing=89,gain=2.07042,cover=6.99237
							89:leaf=-0.0152765,cover=5.24611
							90:leaf=-0.00178737,cover=1.74626
					28:[v108<1.74748] yes=51,no=52,missing=51,gain=4.73197,cover=7.23939
						51:leaf=0.0124163,cover=3.24499
						52:[v51<5.82245] yes=91,no=92,missing=91,gain=7.64474,cover=3.9944
							91:leaf=0.0115046,cover=1.49665
							92:leaf=-0.0114679,cover=2.49775
				16:[v88<2.40163] yes=29,no=30,missing=29,gain=5.03711,cover=6.22602
					29:leaf=0.0138254,cover=4.73042
					30:leaf=-0.00446649,cover=1.49559
		4:[v10<0.612692] yes=9,no=10,missing=9,gain=5.85932,cover=120.761
			9:[v7<2.49786] yes=17,no=18,missing=17,gain=5.11607,cover=16.2067
				17:[v22<1084] yes=31,no=32,missing=31,gain=3.29907,cover=14.7077
					31:[v56<58.5] yes=53,no=54,missing=53,gain=2.89944,cover=3.49027
						53:leaf=-0.00724011,cover=1.99506
						54:leaf=0.00736582,cover=1.49522
					32:[v112<15.5] yes=55,no=56,missing=55,gain=2.12769,cover=11.2174
						55:[v10<0.164114] yes=93,no=94,missing=93,gain=1.46678,cover=8.97309
							93:leaf=0.00274213,cover=1.99565
							94:leaf=0.0140639,cover=6.97745
						56:leaf=0.000877428,cover=2.24429
				18:leaf=-0.0082353,cover=1.49905
			10:[v34<9.79366] yes=19,no=20,missing=19,gain=4.31955,cover=104.554
				19:[v56<7] yes=33,no=34,missing=33,gain=2.00847,cover=83.6318
					33:[v114<16.9349] yes=57,no=58,missing=57,gain=0.601246,cover=3.98549
						57:leaf=0.000854829,cover=2.24316
						58:leaf=0.00827753,cover=1.74233
					34:[v37<1.03261] yes=59,no=60,missing=59,gain=1.89069,cover=79.6463
						59:[v48<15.1168] yes=95,no=96,missing=95,gain=1.65573,cover=73.1669
							95:leaf=0.0149498,cover=71.9207
							96:leaf=0.00173949,cover=1.24621
						60:[v87<10.3893] yes=97,no=98,missing=97,gain=5.13117,cover=6.47932
							97:leaf=0.0131315,cover=3.98512
							98:leaf=-0.00335892,cover=2.49421
				20:[v34<9.99231] yes=35,no=36,missing=35,gain=5.38666,cover=20.9225
					35:leaf=-0.0062032,cover=1.744
					36:[v22<721] yes=61,no=62,missing=61,gain=5.596,cover=19.1785
						61:[v71<2] yes=99,no=100,missing=99,gain=0.755689,cover=2.49367
							99:leaf=-0.00691119,cover=1.247
							100:leaf=0.00174395,cover=1.24667
						62:[v46<2.3644] yes=101,no=102,missing=101,gain=0.920643,cover=16.6848
							101:leaf=0.0122107,cover=15.4381
							102:leaf=0.00169286,cover=1.24668
	2:[v34<2.98791] yes=5,no=6,missing=5,gain=6.70965,cover=277.842
		5:leaf=-0.00372169,cover=1.99626
		6:[v28<12.2557] yes=11,no=12,missing=11,gain=3.31886,cover=275.846
			11:[v88<2.1779] yes=21,no=22,missing=21,gain=2.53668,cover=273.605
				21:[v6<2.90086] yes=37,no=38,missing=37,gain=4.35975,cover=213.412
					37:[v7<3.20718] yes=63,no=64,missing=63,gain=2.73042,cover=199.225
						63:[v129<12] yes=103,no=104,missing=104,gain=2.17544,cover=192.003
							103:leaf=0.0146,cover=87.4458
							104:leaf=0.0117575,cover=104.557
						64:[v15<1.93252] yes=105,no=106,missing=105,gain=5.06147,cover=7.22185
							105:leaf=0.0106611,cover=4.97896
							106:leaf=-0.00528737,cover=2.24289
					38:[v118<7.66359] yes=65,no=66,missing=65,gain=6.61036,cover=14.1872
						65:[v28<4.91341] yes=107,no=108,missing=107,gain=6.82215,cover=4.98348
							107:leaf=0.00772725,cover=2.48982
							108:leaf=-0.0121223,cover=2.49365
						66:[v70<14.1107] yes=109,no=110,missing=109,gain=4.83596,cover=9.20372
							109:leaf=0.0149618,cover=6.71463
							110:leaf=-0.000772163,cover=2.48909
				22:[v98<5.47153] yes=39,no=40,missing=39,gain=2.08157,cover=60.1934
					39:[v6<2.68726] yes=67,no=68,missing=67,gain=5.27485,cover=5.97746
						67:[v88<2.31128] yes=111,no=112,missing=111,gain=1.29103,cover=4.73068
							111:leaf=0.00161406,cover=1.24479
							112:leaf=0.0146289,cover=3.48589
						68:leaf=-0.00686544,cover=1.24678
					40:[v49<8.87406] yes=69,no=70,missing=69,gain=0.800827,cover=54.2159
						69:[v6<3.37396] yes=113,no=114,missing=113,gain=1.16213,cover=50.9797
							113:leaf=0.0172168,cover=46.2515
							114:leaf=0.00852183,cover=4.7282
						70:[v9<9.66667] yes=115,no=116,missing=115,gain=2.55466,cover=3.23623
							115:leaf=0.0124613,cover=1.99033
							116:leaf=-0.00279986,cover=1.2459
			12:leaf=0.000666039,cover=2.24063
booster[12]
0:[v50<1.07989] yes=1,no=2,missing=1,gain=113.607,cover=791.585
	1:[v47<4.5] yes=3,no=4,missing=3,gain=29.5773,cover=359.978
		3:[v95<0.822015] yes=7,no=8,missing=7,gain=9.70726,cover=165.306
			7:[v21<7.13553] yes=15,no=16,missing=15,gain=6.96996,cover=143.115
				15:[v12<6.65261] yes=31,no=32,missing=31,gain=5.62572,cover=78.4431
					31:[v50<0.526007] yes=55,no=56,missing=55,gain=5.30762,cover=41.8346
						55:[v57<3.17701] yes=91,no=92,missing=91,gain=7.53116,cover=15.451
							91:leaf=-0.00186916,cover=8.47863
							92:leaf=0.0114839,cover=6.9724
						56:[v117<12.1] yes=93,no=94,missing=93,gain=5.484,cover=26.3836
							93:leaf=0.0141054,cover=22.398
							94:leaf=0.00111713,cover=3.98559
					32:[v68<19.1238] yes=57,no=58,missing=57,gain=6.25714,cover=36.6085
						57:[v120<1.22483] yes=95,no=96,missing=95,gain=5.58834,cover=32.6167
							95:leaf=0.0080534,cover=23.1458
							96:leaf=-0.000920633,cover=9.47087
						58:[v34<4.90662] yes=97,no=98,missing=97,gain=4.53067,cover=3.9918
							97:leaf=0.00613316,cover=1.24673
							98:leaf=-0.0125452,cover=2.74506
				16:[v50<0.179738] yes=33,no=34,missing=33,gain=6.88319,cover=64.6718
					33:[v12<6.93375] yes=59,no=60,missing=59,gain=0.765481,cover=2.49462
						59:leaf=0.00172277,cover=1.2467
						60:leaf=-0.00700096,cover=1.24791
					34:[v88<3.22725] yes=61,no=62,missing=61,gain=3.94749,cover=62.1771
						61:[v34<8.68817] yes=99,no=100,missing=99,gain=2.4607,cover=59.4386
							99:leaf=0.0136773,cover=52.7234
							100:leaf=0.00588172,cover=6.71523
						62:[v86<0.99952] yes=101,no=102,missing=101,gain=6.05685,cover=2.73853
							101:leaf=0.0111052,cover=1.49075
							102:leaf=-0.0115394,cover=1.24778
			8:[v55<1.84578] yes=17,no=18,missing=17,gain=8.2119,cover=22.1915
				17:[v88<2.2146] yes=35,no=36,missing=35,gain=4.5634,cover=12.9574
					35:[v95<1.14035] yes=63,no=64,missing=63,gain=3.51914,cover=9.96444
						63:[v9<7.08111] yes=103,no=104,missing=103,gain=1.45676,cover=7.46814
							103:leaf=0.00161005,cover=1.2458
							104:leaf=0.0147979,cover=6.22234
						64:[v88<1.41735] yes=105,no=106,missing=105,gain=1.89785,cover=2.4963
							105:leaf=-0.00675558,cover=1.24856
							106:leaf=0.00624107,cover=1.24774
					36:[v100<13.5411] yes=65,no=66,missing=65,gain=3.11334,cover=2.99299
						65:leaf=0.00474676,cover=1.74365
						66:leaf=-0.0113208,cover=1.24933
				18:[v12<6.51356] yes=37,no=38,missing=37,gain=5.85241,cover=9.23403
					37:leaf=0.00848255,cover=1.74441
					38:[v34<5.7791] yes=67,no=68,missing=67,gain=3.23225,cover=7.48962
						67:leaf=0.00117537,cover=2.24482
						68:[v111<5.11705] yes=107,no=108,missing=107,gain=1.06291,cover=5.24481
							107:leaf=-0.0154406,cover=3.24825
							108:leaf=-0.00381601,cover=1.99655
		4:[v34<7.83362] yes=9,no=10,missing=9,gain=22.7125,cover=194.672
			9:[v50<0.420366] yes=19,no=20,missing=19,gain=16.7446,cover=146.822
				19:[v11<15.6692] yes=39,no=40,missing=39,gain=9.08203,cover=45.9609
					39:[v18<1.06827] yes=69,no=70,missing=69,gain=5.86802,cover=35.9737
						69:[v21<8.16294] yes=109,no=110,missing=109,gain=5.98596,cover=31.2291
							109:leaf=-0.00463189,cover=29.7309
							110:leaf=0.0116249,cover=1.49814
						70:[v77<6.60586] yes=111,no=112,missing=111,gain=3.82664,cover=4.74464
							111:leaf=-0.00403533,cover=1.49883
							112:leaf=0.0125063,cover=3.24582
					40:[v120<0.731501] yes=71,no=72,missing=71,gain=5.85564,cover=9.98716
						71:leaf=0.00143129,cover=2.24786
						72:leaf=-0.0160747,cover=7.73929
				20:[v21<7.1729] yes=41,no=42,missing=41,gain=7.05566,cover=100.861
					41:[v112<5.5] yes=73,no=74,missing=73,gain=10.5232,cover=61.1766
						73:[v51<8.21618] yes=113,no=114,missing=113,gain=5.17355,cover=14.7366
							113:leaf=-0.00873591,cover=12.7387
							114:leaf=0.00629783,cover=1.99787
						74:[v21<6.3734] yes=115,no=116,missing=115,gain=8.37037,cover=46.44
							115:leaf=0.00904761,cover=14.479
							116:leaf=8.5807e-05,cover=31.961
					42:[v22<3993] yes=75,no=76,missing=75,gain=5.18473,cover=39.6845
						75:[v130<1.93134] yes=117,no=118,missing=117,gain=5.6721,cover=37.188
							117:leaf=0.00448101,cover=27.9536
							118:leaf=0.0135007,cover=9.23444
						76:[v125<54.5] yes=119,no=120,missing=119,gain=1.67633,cover=2.4965
							119:leaf=0.0018453,cover=1.24794
							120:leaf=-0.0113907,cover=1.24855
			10:[v104<3.58715] yes=21,no=22,missing=21,gain=6.6335,cover=47.8501
				21:[v50<0.562688] yes=43,no=44,missing=43,gain=4.64373,cover=45.8519
					43:[v111<3.65079] yes=77,no=78,missing=77,gain=6.25502,cover=21.4498
						77:[v125<48] yes=121,no=122,missing=121,gain=3.51925,cover=19.2029
							121:leaf=0.00305907,cover=10.7239
							122:leaf=0.0118283,cover=8.47891
						78:leaf=-0.00796352,cover=2.2469
					44:[v112<21.5] yes=79,no=80,missing=79,gain=1.35652,cover=24.4022
						79:[v12<6.04572] yes=123,no=124,missing=123,gain=1.23447,cover=22.4084
							123:leaf=0.00168713,cover=1.24696
							124:leaf=0.0134763,cover=21.1614
						80:leaf=0.002662,cover=1.99379
				22:leaf=-0.00689651,cover=1.99816
	2:[v50<2.22507] yes=5,no=6,missing=5,gain=21.7809,cover=431.607
		5:[v47<4.5] yes=11,no=12,missing=11,gain=10.4902,cover=269.515
			11:[v115<15.8571] yes=23,no=24,missing=23,gain=5.98137,cover=141.159
				23:[v123<12.1075] yes=45,no=46,missing=45,gain=3.96167,cover=139.663
					45:[v51<11.3093] yes=81,no=82,missing=81,gain=3.04038,cover=137.668
						81:[v22<3314.5] yes=125,no=126,missing=125,gain=2.35656,cover=134.429
							125:leaf=0.0143522,cover=107.829
							126:leaf=0.00999259,cover=26.5994
						82:[v12<6.45569] yes=127,no=128,missing=127,gain=3.75316,cover=3.23919
							127:leaf=0.0111879,cover=1.49243
							128:leaf=-0.005898,cover=1.74676
					46:leaf=-0.00057645,cover=1.99482
				24:leaf=-0.00451326,cover=1.49582
			12:[v9<9.67464] yes=25,no=26,missing=25,gain=11.9424,cover=128.356
				25:[v12<7.52833] yes=47,no=48,missing=47,gain=4.66969,cover=100.163
					47:[v22<534] yes=83,no=84,missing=83,gain=3.95192,cover=95.9267
						83:[v86<1.12771] yes=129,no=130,missing=129,gain=4.33028,cover=8.72959
							129:leaf=0.0070299,cover=7.23083
							130:leaf=-0.00822984,cover=1.49876
						84:[v21<5.29589] yes=131,no=132,missing=131,gain=3.30447,cover=87.1971
							131:leaf=0.000480809,cover=2.74034
							132:leaf=0.0118174,cover=84.4568
					48:[v11<15.8146] yes=85,no=86,missing=85,gain=5.18618,cover=4.2367
						85:[v56<63] yes=133,no=134,missing=133,gain=1.94228,cover=2.74334
							133:leaf=-0.0125278,cover=1.49718
							134:leaf=0.00163429,cover=1.24616
						86:leaf=0.0112391,cover=1.49336
				26:[v18<1.76444] yes=49,no=50,missing=49,gain=8.69718,cover=28.1928
					49:[v9<10.2093] yes=87,no=88,missing=87,gain=6.88827,cover=26.1941
						87:[v5<6.7115] yes=135,no=136,missing=135,gain=9.37839,cover=6.73965
							135:leaf=0.0121003,cover=1.74513
							136:leaf=-0.0103641,cover=4.99452
						88:[v130<1.22841] yes=137,no=138,missing=137,gain=9.13383,cover=19.4544
							137:leaf=-0.00636636,cover=3.24459
							138:leaf=0.0104865,cover=16.2098
					50:leaf=-0.0134478,cover=1.99875
		6:[v48<15.9279] yes=13,no=14,missing=13,gain=1.29926,cover=162.092
			13:[v68<19.4027] yes=27,no=28,missing=27,gain=0.250439,cover=158.107
				27:[v127<5.72656] yes=51,no=52,missing=51,gain=0.168651,cover=154.38
					51:leaf=0.0162925,cover=146.928
					52:[v88<1.3124] yes=89,no=90,missing=89,gain=4.59681,cover=7.45218
						89:leaf=-0.0026741,cover=1.74195
						90:leaf=0.0142443,cover=5.71024
				28:[v50<2.73127] yes=53,no=54,missing=53,gain=1.31287,cover=3.72685
					53:leaf=0.000863094,cover=1.73941
					54:leaf=0.0123362,cover=1.98744
			14:[v117<8.56653] yes=29,no=30,missing=29,gain=2.27594,cover=3.98506
				29:leaf=0.011129,cover=2.73871
				30:leaf=-0.00273572,cover=1.24635
booster[13]
0:[v10<2.08972] yes=1,no=2,missing=1,gain=41.6552,cover=796.228
	1:[v66<2.5] yes=3,no=4,missing=3,gain=29.4329,cover=593.984
		3:[v113<3.5] yes=7,no=8,missing=7,gain=29.8563,cover=459.763
			7:[v35<10.9296] yes=13,no=14,missing=13,gain=8.04785,cover=200.159
				13:[v122<8.18813] yes=25,no=26,missing=25,gain=6.86636,cover=197.163
					25:[v95<1.19726] yes=49,no=50,missing=49,gain=5.59119,cover=172.522
						49:[v36<16.5516] yes=79,no=80,missing=79,gain=4.02715,cover=170.03
							79:leaf=0.0108962,cover=166.291
							80:leaf=0.000316309,cover=3.73892
						50:[v36<14.6517] yes=81,no=82,missing=81,gain=3.14434,cover=2.49173
							81:leaf=0.00592331,cover=1.24296
							82:leaf=-0.0110342,cover=1.24877
					26:[v122<8.91] yes=51,no=52,missing=51,gain=5.46295,cover=24.6408
						51:[v119<4.25301] yes=83,no=84,missing=83,gain=5.56156,cover=12.4514
							83:leaf=0.00281973,cover=10.7038
							84:leaf=-0.01299,cover=1.74767
						52:[v117<3.77753] yes=85,no=86,missing=85,gain=5.08368,cover=12.1893
							85:leaf=-0.00402289,cover=1.99345
							86:leaf=0.0117013,cover=10.1959
				14:[v26<1.88849] yes=27,no=28,missing=27,gain=2.90322,cover=2.99595
					27:leaf=0.0036243,cover=1.49711
					28:leaf=-0.012217,cover=1.49885
			8:[v66<1.5] yes=15,no=16,missing=15,gain=12.91,cover=259.604
				15:[v41<7.89539] yes=29,no=30,missing=29,gain=13.1307,cover=183.026
					29:[v70<11.6334] yes=53,no=54,missing=53,gain=11.068,cover=162.32
						53:[v70<11.0586] yes=87,no=88,missing=87,gain=11.9385,cover=113.473
							87:leaf=0.00595496,cover=102.993
							88:leaf=-0.00489835,cover=10.4799
						54:[v80<2.56503] yes=89,no=90,missing=89,gain=6.06115,cover=48.8474
							89:leaf=0.0135171,cover=29.6509
							90:leaf=0.00583818,cover=19.1965
					30:[v122<6.45075] yes=55,no=56,missing=55,gain=9.50057,cover=20.7057
						55:[v119<0.0395321] yes=91,no=92,missing=91,gain=1.43797,cover=4.98371
							91:leaf=0.00233753,cover=2.49352
							92:leaf=0.0134795,cover=2.49019
						56:[v27<1.48548] yes=93,no=94,missing=93,gain=9.26156,cover=15.722
							93:leaf=0.0119814,cover=1.74313
							94:leaf=-0.00830809,cover=13.9789
				16:[v22<2874.5] yes=31,no=32,missing=31,gain=10.6901,cover=76.5785
					31:[v109<2.95503] yes=57,no=58,missing=57,gain=9.86725,cover=48.8988
						57:[v40<13.893] yes=95,no=96,missing=95,gain=6.37123,cover=33.1756
							95:leaf=0.00470093,cover=19.6995
							96:leaf=-0.00395632,cover=13.4762
						58:[v122<6.74332] yes=97,no=98,missing=97,gain=10.297,cover=15.7231
							97:leaf=0.000918824,cover=6.98372
							98:leaf=-0.0148683,cover=8.73941
					32:[v10<1.07221] yes=59,no=60,missing=59,gain=8.8243,cover=27.6797
						59:[v22<3450] yes=99,no=100,missing=99,gain=4.93339,cover=14.4773
							99:leaf=0.00656591,cover=5.98984
							100:leaf=-0.00450603,cover=8.48749
						60:[v27<3.33076] yes=101,no=102,missing=101,gain=3.40757,cover=13.2024
							101:leaf=0.0128592,cover=11.9555
							102:leaf=-0.00264528,cover=1.24687
		4:[v40<4.81369] yes=9,no=10,missing=9,gain=4.18649,cover=134.221
			9:[v48<11.9581] yes=17,no=18,missing=17,gain=3.44555,cover=35.8311
				17:[v113<11.5] yes=33,no=34,missing=33,gain=4.30434,cover=29.5975
					33:[v40<4.28334] yes=61,no=62,missing=61,gain=1.14757,cover=4.47753
						61:[v22<2401.5] yes=103,no=104,missing=103,gain=0.648556,cover=2.98345
							103:leaf=-0.000798612,cover=1.49317
							104:leaf=0.00707007,cover=1.49028
						62:leaf=-0.00474495,cover=1.49408
					34:[v10<0.328227] yes=63,no=64,missing=63,gain=1.67686,cover=25.1199
						63:leaf=0.00122733,cover=1.74607
						64:leaf=0.0121464,cover=23.3739
				18:[v48<13.0568] yes=35,no=36,missing=35,gain=12.5319,cover=6.2336
					35:[v35<7.84612] yes=65,no=66,missing=65,gain=0.604839,cover=3.24716
						65:leaf=-0.0132937,cover=1.99856
						66:leaf=-0.0024026,cover=1.2486
					36:leaf=0.014048,cover=2.98644
			10:[v103<6.61925] yes=19,no=20,missing=19,gain=3.44632,cover=98.3895
				19:[v115<11.7029] yes=37,no=38,missing=37,gain=2.65918,cover=94.4066
					37:[v27<4.0218] yes=67,no=68,missing=67,gain=1.5121,cover=87.6915
						67:[v10<0.164114] yes=105,no=106,missing=105,gain=0.922725,cover=86.4478
							105:leaf=0.00334876,cover=1.49543
							106:leaf=0.0142776,cover=84.9524
						68:leaf=0.00158496,cover=1.2437
					38:[v61<15.2538] yes=69,no=70,missing=69,gain=8.48165,cover=6.71508
						69:[v4<3.86561] yes=107,no=108,missing=107,gain=4.14039,cover=2.99025
							107:leaf=0.00591899,cover=1.24191
							108:leaf=-0.0129365,cover=1.74834
						70:leaf=0.0145905,cover=3.72482
				20:[v40<6.59938] yes=39,no=40,missing=39,gain=3.72988,cover=3.98292
					39:leaf=-0.00612313,cover=1.7437
					40:leaf=0.00988706,cover=2.23922
	2:[v90<1.41735] yes=5,no=6,missing=5,gain=3.93656,cover=202.244
		5:[v32<2.26258] yes=11,no=12,missing=11,gain=2.57787,cover=200.998
			11:[v22<3578.5] yes=21,no=22,missing=21,gain=2.16908,cover=189.805
				21:[v129<2.5] yes=41,no=42,missing=42,gain=2.64294,cover=167.46
					41:[v103<6.99474] yes=71,no=72,missing=71,gain=2.02341,cover=84.9932
						71:[v18<1.604] yes=109,no=110,missing=109,gain=0.574139,cover=83.7493
							109:leaf=0.0159717,cover=80.2781
							110:leaf=0.00753719,cover=3.47119
						72:leaf=0.00151716,cover=1.24393
					42:[v48<15.3383] yes=73,no=74,missing=73,gain=1.33109,cover=82.4665
						73:[v46<2.81226] yes=111,no=112,missing=111,gain=1.45735,cover=80.4744
							111:leaf=0.0128216,cover=75.5036
							112:leaf=0.00547863,cover=4.97081
						74:leaf=0.00257246,cover=1.99205
				22:[v22<3635] yes=43,no=44,missing=43,gain=6.54344,cover=22.3458
					43:leaf=-0.00631474,cover=1.74185
					44:[v18<1.03788] yes=75,no=76,missing=75,gain=2.70548,cover=20.6039
						75:[v113<22.5] yes=113,no=114,missing=113,gain=4.07411,cover=18.3671
							113:leaf=0.0139103,cover=16.3759
							114:leaf=-0.000804833,cover=1.99123
						76:leaf=0.000506059,cover=2.23683
			12:[v115<10.0626] yes=23,no=24,missing=23,gain=3.82076,cover=11.193
				23:[v90<0.902601] yes=45,no=46,missing=45,gain=6.54661,cover=5.72452
					45:[v52<3.5] yes=77,no=78,missing=77,gain=2.8816,cover=3.72918
						77:leaf=-0.00275583,cover=1.24652
						78:leaf=0.0131668,cover=2.48266
					46:leaf=-0.0105254,cover=1.99534
				24:[v95<0.689982] yes=47,no=48,missing=47,gain=1.40806,cover=5.46851
					47:leaf=0.00163623,cover=1.24606
					48:leaf=0.014981,cover=4.22246
		6:leaf=-0.00272493,cover=1.24581
booster[14]
0:[v31<2.5] yes=1,no=2,missing=1,gain=47.275,cover=798.123
	1:[v40<6.00644] yes=3,no=4,missing=3,gain=10.908,cover=643.363
		3:[v20<18.7315] yes=7,no=8,missing=7,gain=3.79558,cover=63.5883
			7:[v40<4.29636] yes=13,no=14,missing=13,gain=1.78795,cover=60.1043
				13:[v21<6.36552] yes=23,no=24,missing=23,gain=3.45848,cover=30.0759
					23:leaf=0.0141585,cover=12.1781
					24:[v40<3.96136] yes=39,no=40,missing=39,gain=3.93126,cover=17.8978
						39:[v112<9.5] yes=61,no=62,missing=61,gain=3.32811,cover=15.4108
							61:leaf=0.0141755,cover=5.46667
							62:leaf=0.0042589,cover=9.9441
						40:[v21<7.02385] yes=63,no=64,missing=63,gain=0.762077,cover=2.487
							63:leaf=-0.00742756,cover=1.24404
							64:leaf=0.00142068,cover=1.24297
				14:[v57<4.15692] yes=25,no=26,missing=25,gain=2.12302,cover=30.0284
					25:[v131<2.33199] yes=41,no=42,missing=41,gain=1.45534,cover=26.7957
						41:[v79<11.5] yes=65,no=66,missing=65,gain=1.28043,cover=25.303
							65:leaf=0.016841,cover=23.5654
							66:leaf=0.00441214,cover=1.73756
						42:leaf=0.00325641,cover=1.49279
					26:[v64<5.4736] yes=43,no=44,missing=43,gain=3.27717,cover=3.23269
						43:leaf=-0.00455998,cover=1.4947
						44:leaf=0.01175,cover=1.73799
			8:[v52<6.5] yes=15,no=16,missing=15,gain=3.15913,cover=3.48395
				15:leaf=-0.00520207,cover=2.24179
				16:leaf=0.0102742,cover=1.24215
		4:[v72<2.5] yes=9,no=10,missing=10,gain=11.2423,cover=579.775
			9:[v79<2.5] yes=17,no=18,missing=17,gain=8.35445,cover=523.409
				17:[v40<9.81477] yes=27,no=28,missing=27,gain=4.05273,cover=47.6346
					27:[v57<4.15912] yes=45,no=46,missing=45,gain=6.93594,cover=23.5762
						45:[v112<3.5] yes=67,no=68,missing=67,gain=2.08063,cover=19.8426
							67:leaf=0.000497069,cover=2.23633
							68:leaf=0.0109369,cover=17.6062
						46:[v65<16.9298] yes=69,no=70,missing=69,gain=3.45855,cover=3.73361
							69:leaf=-0.0123896,cover=1.49802
							70:leaf=0.00358329,cover=2.23559
					28:[v65<17.5884] yes=47,no=48,missing=47,gain=1.08083,cover=24.0584
						47:[v18<0.370697] yes=71,no=72,missing=71,gain=0.324539,cover=22.567
							71:leaf=0.010757,cover=10.6585
							72:leaf=0.0169853,cover=11.9084
						48:leaf=0.00311894,cover=1.49147
				18:[v9<9.61553] yes=29,no=30,missing=29,gain=8.13821,cover=475.775
					29:[v86<2.05069] yes=49,no=50,missing=49,gain=6.34117,cover=364.912
						49:[v69<8.06327] yes=73,no=74,missing=73,gain=5.8451,cover=357.428
							73:leaf=0.00647015,cover=226.741
							74:leaf=0.00924118,cover=130.687
						50:[v24<3.5] yes=75,no=76,missing=75,gain=7.77719,cover=7.48418
							75:leaf=0.00921228,cover=2.9887
							76:leaf=-0.00915871,cover=4.49548
					30:[v9<10.8452] yes=51,no=52,missing=51,gain=9.02087,cover=110.862
						51:[v124<0.251859] yes=77,no=78,missing=77,gain=8.63314,cover=61.799
							77:leaf=0.00428048,cover=40.1026
							78:leaf=-0.00341411,cover=21.6964
						52:[v24<2.5] yes=79,no=80,missing=79,gain=7.32507,cover=49.0632
							79:leaf=-0.00288917,cover=5.73552
							80:leaf=0.00869713,cover=43.3277
			10:[v36<14.6056] yes=19,no=20,missing=19,gain=4.61498,cover=56.3652
				19:[v20<19.2026] yes=31,no=32,missing=31,gain=1.48866,cover=41.2024
					31:[v107<5.5] yes=53,no=54,missing=53,gain=1.03619,cover=39.9598
						53:[v69<11.6048] yes=81,no=82,missing=81,gain=1.06974,cover=38.4699
							81:leaf=0.0145876,cover=36.9785
							82:leaf=0.00317255,cover=1.49137
						54:leaf=0.00306396,cover=1.48985
					32:leaf=0.00146867,cover=1.24262
				20:[v46<0.353202] yes=33,no=34,missing=33,gain=4.63133,cover=15.1629
					33:leaf=-0.0051569,cover=2.24395
					34:[v8<1.28016] yes=55,no=56,missing=55,gain=3.87051,cover=12.9189
						55:leaf=0.0141989,cover=5.70777
						56:[v33<1.96796] yes=83,no=84,missing=83,gain=6.32019,cover=7.21117
							83:leaf=-0.00858027,cover=2.23988
							84:leaf=0.0088819,cover=4.97129
	2:[v103<7.97354] yes=5,no=6,missing=5,gain=4.38905,cover=154.76
		5:[v115<15.4701] yes=11,no=12,missing=11,gain=3.62621,cover=153.514
